[0. 0. 0. 0. 0. 0. 0. 0. 0. 0.]
[0. 0. 0. 0. 0. 0. 0. 0. 0. 0.]
[0. 0. 0. 0. 0. 0. 0. 0. 0. 0.]
[0. 0. 0. 0. 0. 0. 0. 0. 0. 0.]
[0. 0. 0. 0. 0. 0. 0. 0. 0. 0.]
[0. 0. 0. 0. 0. 0. 0. 0. 0. 0.]
[0. 0. 0. 0. 0. 0. 0. 0. 0. 0.]
[0. 0. 0. 0. 0. 0. 0. 0. 0. 0.]
[0. 0. 0. 0. 0. 0. 0. 0. 0. 0.]
[0. 0. 0. 0. 0. 0. 0. 0. 0. 0.]
[0. 0. 0. 0. 0. 0. 0. 0. 0. 0.]
[0. 0. 0. 0. 0. 0. 0. 0. 0. 0.]
[-5.13927353e-06 -7.45862144e-06 -2.52979546e-04 -4.14583774e-05
 -1.50481029e-03 -3.42625754e-05 2.17353157e-03 -8.07045944e-06
 -7.09732340e-05 -2.48378958e-04]
[-2.37143613e-05 -2.30481328e-05 1.28980028e-05 -1.00660240e-04
 -3.56348138e-03 -7.60318289e-05 4.58196364e-03 -3.52454299e-05
 -1.73690496e-04 -5.98989369e-04]
[-1.38668474e-05 -7.47398281e-06 6.30779949e-04 -1.09953126e-05
 -2.98750907e-04 -1.12238570e-06 -1.97324131e-04 -1.95563953e-05
 -2.03461514e-05 -6.13436932e-05]
[-5.77785272e-07 -3.11415931e-07 2.62824960e-05 -4.58137976e-07
 -1.24479538e-05 -4.67660719e-08 -8.22183847e-06 -8.14849727e-07
 -8.47756269e-07 -2.55598707e-06]
[0. 0. 0. 0. 0. 0. 0. 0. 0. 0.]
[0. 0. 0. 0. 0. 0. 0. 0. 0. 0.]
[0. 0. 0. 0. 0. 0. 0. 0. 0. 0.]
[0. 0. 0. 0. 0. 0. 0. 0. 0. 0.]
[0. 0. 0. 0. 0. 0. 0. 0. 0. 0.]
[0. 0. 0. 0. 0. 0. 0. 0. 0. 0.]
[0. 0. 0. 0. 0. 0. 0. 0. 0. 0.]
[0. 0. 0. 0. 0. 0. 0. 0. 0. 0.]
[0. 0. 0. 0. 0. 0. 0. 0. 0. 0.]
[0. 0. 0. 0. 0. 0. 0. 0. 0. 0.]
[0. 0. 0. 0. 0. 0. 0. 0. 0. 0.]
[0. 0. 0. 0. 0. 0. 0. 0. 0. 0.]
[0. 0. 0. 0. 0. 0. 0. 0. 0. 0.]
[0. 0. 0. 0. 0. 0. 0. 0. 0. 0.]
[0. 0. 0. 0. 0. 0. 0. 0. 0. 0.]
[0. 0. 0. 0. 0. 0. 0. 0. 0. 0.]
[-1.24304268e-06 -4.16822729e-07 -1.06789321e-05 -9.51525365e-08
 -2.91158012e-05 -7.22375660e-07 5.08428639e-05 -3.73334927e-07
 -2.89450236e-06 -5.30289935e-06]
[-3.66233735e-06 -1.22441941e-06 -3.16711885e-05 -2.80561665e-07
 -1.17165604e-04 -2.12260397e-06 1.81531941e-04 -1.19220863e-06
 -8.50924425e-06 -1.57037921e-05]
[-1.86349132e-06 -1.16860086e-08 -1.23486010e-04 -1.34791253e-06
 -5.63625200e-03 -5.85443377e-06 5.81380073e-03 -1.04514775e-05
 -1.34452375e-06 -3.31880401e-05]
[-7.55251676e-06 -3.16921942e-05 -3.29538598e-04 -5.39961047e-06
 -1.26954848e-02 -1.20090717e-05 1.32835470e-02 -7.94829393e-05
 -3.91577560e-05 -8.32304868e-05]
[-1.84348799e-04 -1.37571932e-03 -1.84210157e-03 -1.42418139e-04
 -1.38001870e-02 -7.41400363e-05 1.92110110e-02 -6.08347182e-04
 -7.67745776e-04 -4.16005845e-04]
[-0.00057515 -0.00145377 -0.00371951 -0.00035742 -0.0079539 -0.00023466
 0.01710411 -0.00066824 -0.00113939 -0.00100208]
[-0.00059125 -0.00098415 -0.00196935 -0.00023708 -0.0137732 -0.00025064
 0.02000105 -0.00048539 -0.00069636 -0.00101364]
[0.00344181 -0.0007195 -0.00395451 -0.00013699 -0.02100487 -0.00016044
 0.02702835 -0.00184818 -0.00070213 -0.00194352]
[0.00756334 -0.00052582 -0.00467106 -0.00030441 -0.03501632 -0.00090119
 0.04051061 -0.00289461 -0.00060643 -0.00315411]
[0.0030061 -0.00032032 -0.00370566 -0.00025361 -0.02247327 -0.00101861
 0.02840622 -0.00115039 -0.0006889 -0.00180156]
[-0.00110134 0.00576109 -0.00219307 -0.00121996 -0.01068567 -0.00094167
 0.01244691 -0.00038272 -0.00091196 -0.00077161]
[0.00135528 0.0088322 0.00172265 -0.00166994 -0.02114395 -0.00183895
 0.01756252 -0.00097841 -0.00120931 -0.0026321]
[0.00736977 -0.0006963 0.013872 -0.00062958 -0.02073756 -0.00089498
 0.009822 -0.00099922 -0.00146507 -0.00564106]
[0.00372701 -0.00092295 0.00292806 -0.00019407 -0.00863896 -0.00041308
 0.00743851 -0.00038789 -0.00079851 -0.00273812]
[-4.31004039e-04 -1.60079828e-04 -4.69809165e-03 -7.12069013e-05
 -4.58497927e-03 -8.72211589e-04 1.24176536e-02 -1.71235093e-04
 -7.29823427e-04 -6.99026044e-04]
[-2.95966689e-04 -1.15543349e-04 -4.11989307e-03 -6.45003020e-05
 -5.77699579e-03 -7.81613460e-04 1.25673078e-02 -9.06911009e-05
 -6.36977667e-04 -6.85125939e-04]
[-2.12440311e-04 -1.70720727e-04 -2.27107457e-03 -6.79992299e-05
 -4.21267981e-03 -3.43516236e-04 8.69431160e-03 -5.09347919e-05
 -6.06259797e-04 -7.58685230e-04]
[-5.04991185e-05 -2.26825887e-05 -8.19606765e-04 -2.59122116e-05
 -3.86626087e-03 -4.29239590e-05 5.10879094e-03 -5.64635729e-06
 -1.37304611e-04 -1.37955256e-04]
[-5.67417601e-06 -9.74068939e-07 -5.90617274e-05 -1.69488328e-06
 -4.34514554e-03 -1.17186210e-06 4.50843060e-03 -2.38605276e-06
 -2.63819911e-05 -6.59404977e-05]
[-5.91746243e-08 -2.50491894e-08 -2.15057662e-05 -2.55196682e-08
 -6.61233789e-04 -1.09998223e-06 7.12897629e-04 -3.22195092e-06
 -5.97020244e-06 -1.97565587e-05]
[0. 0. 0. 0. 0. 0. 0. 0. 0. 0.]
[0. 0. 0. 0. 0. 0. 0. 0. 0. 0.]
[0. 0. 0. 0. 0. 0. 0. 0. 0. 0.]
[0. 0. 0. 0. 0. 0. 0. 0. 0. 0.]
[0. 0. 0. 0. 0. 0. 0. 0. 0. 0.]
[0. 0. 0. 0. 0. 0. 0. 0. 0. 0.]
[-1.44039110e-08 -6.01348082e-10 -2.29309023e-07 -3.23247917e-09
 -8.99249585e-07 -4.26367933e-07 2.07963876e-06 -7.18727551e-12
 -1.80957230e-07 -3.25497240e-07]
[1.32417379e-04 -8.43033365e-10 -4.57590522e-06 -2.38105741e-07
 -1.00270889e-04 -1.60592972e-05 4.63186771e-05 -1.34676720e-05
 -4.58835348e-06 -3.95349780e-05]
[5.91970747e-05 -7.90842705e-07 -1.07831220e-04 -4.43867236e-07
 -2.63431080e-04 -8.19853904e-06 3.57265846e-04 -5.42209091e-06
 -8.77458751e-06 -2.15692944e-05]
[-3.90311761e-05 -1.08811946e-05 2.45369465e-05 -1.79723847e-05
 -1.97274931e-04 -6.45437331e-06 3.01674154e-04 -2.04111439e-06
 -2.86362410e-05 -2.39193923e-05]
[-1.60264981e-03 -6.09071394e-05 -1.64593162e-04 -1.41699682e-04
 -5.32581983e-03 -2.86819723e-05 7.64593715e-03 -8.44941460e-05
 -1.57668270e-04 -7.94219159e-05]
[-0.00294274 -0.00086378 -0.00198861 -0.0010048 -0.02341387 -0.00044181
 0.03246405 -0.0005975 -0.0006091 -0.00060184]
[-0.00670877 -0.00501745 -0.00274445 -0.00358923 -0.03231529 -0.00172948
 0.05808142 -0.00228809 -0.00218556 -0.0015031]
[-0.00895484 -0.00801066 0.00177187 -0.0060039 -0.0359645 -0.00394545
 0.07259881 -0.0033216 -0.00561357 -0.00255611]
[-0.00767619 -0.01073325 0.00327812 -0.00334736 -0.0690196 -0.00830399
 0.11454993 -0.00474933 -0.00873028 -0.00526803]
[-0.00975372 -0.01288447 0.01653558 0.00223542 -0.08002683 -0.01674188
 0.12941919 -0.00901597 -0.01182269 -0.00794456]
[-0.01043801 0.0007367 0.01824429 -0.00111306 -0.11117265 -0.02025596
 0.15760079 -0.00771251 -0.01435081 -0.01153879]
[-0.01889809 0.02102216 0.00683961 -0.00501282 -0.10417163 -0.02387077
 0.16289274 -0.00614464 -0.01902427 -0.01363243]
[-0.03004503 0.02673801 0.01781158 -0.00156112 -0.07508435 -0.02916811
 0.132999 -0.00765532 -0.02058664 -0.01344805]
[-0.03358237 0.04067651 0.03763404 -0.00653182 -0.07825988 -0.02432048
 0.11453969 -0.00955803 -0.02475424 -0.01584329]
[-0.03022605 0.02272565 0.02419215 -0.0026324 -0.07442896 -0.00469498
 0.11583011 -0.00688977 -0.02500027 -0.01887561]
[-0.02972825 -0.00437851 0.00124746 -0.00142318 -0.03978441 0.00519543
 0.10874263 -0.00560403 -0.01929152 -0.01497551]
[-0.02364832 -0.00613164 -0.02373271 -0.0059372 -0.02869281 0.00839015
 0.10493732 -0.00430464 -0.01079233 -0.01008785]
[-0.01830176 0.00052237 -0.03560048 -0.0056813 -0.01575878 0.0029215
 0.09307326 -0.00205725 -0.01284355 -0.00627407]
[-0.01326983 -0.00396859 -0.02185983 -0.00330147 -0.00898094 -0.01081717
 0.07237054 -0.00107999 -0.0059546 -0.00313806]
[-0.0067134 -0.00434879 -0.01754887 -0.00334238 -0.00744565 -0.01063217
 0.05818174 -0.00100236 -0.00467703 -0.00247107]
[-0.00324119 -0.00292466 -0.01347606 -0.00224601 -0.00764069 -0.00473757
 0.03893774 -0.00060185 -0.00291767 -0.00115205]
[-1.10910297e-03 -1.30197639e-03 -5.16668428e-03 -6.58487610e-04
 -4.19487385e-03 -3.39606102e-03 1.70180574e-02 -2.64449627e-05
 -9.92847723e-04 -1.71577412e-04]
[-2.72990117e-04 -4.40953911e-04 3.16415634e-03 -9.30773022e-05
 -1.06184639e-03 -2.48653069e-03 1.86444179e-03 -8.99994666e-06
 -6.36173645e-04 -2.80266322e-05]
[-8.13720453e-06 -7.63229255e-05 3.18389875e-03 -1.79589142e-06
 -2.67104304e-04 -5.24552423e-04 -2.02544406e-03 -1.74414254e-07
 -2.73038168e-04 -7.32957051e-06]
[0. 0. 0. 0. 0. 0. 0. 0. 0. 0.]
[0. 0. 0. 0. 0. 0. 0. 0. 0. 0.]
[0. 0. 0. 0. 0. 0. 0. 0. 0. 0.]
[0. 0. 0. 0. 0. 0. 0. 0. 0. 0.]
[-3.43716700e-08 9.22393738e-05 -7.43189503e-06 -3.05449566e-06
 -1.99304350e-06 -1.39641861e-06 -5.97024009e-05 -3.29597398e-08
 -1.77893580e-05 -8.04351089e-07]
[7.04425183e-05 2.18996265e-05 -1.43437455e-05 -1.30320386e-05
 -4.66642494e-04 7.91781076e-07 6.98593096e-04 -4.62136195e-05
 -1.06597065e-04 -1.44898004e-04]
[-0.00196476 -0.00012203 -0.00097444 -0.00090764 -0.00058786 0.00195946
 0.00346137 -0.0004719 -0.00020884 -0.00018337]
[-0.01055245 -0.00046325 0.00039575 0.01713219 -0.00127216 -0.00745734
 0.00420832 -0.00046527 -0.00108944 -0.00043634]
[-0.01491937 -0.00162398 0.00293267 0.0139847 -0.01191611 -0.00571439
 0.02155452 -0.00096595 -0.00217425 -0.00115784]
[-0.01883902 -0.00778917 0.02105518 0.02291204 -0.03155896 -0.01252257
 0.04001957 -0.00421133 -0.00629596 -0.00276975]
[-0.01166468 -0.01951037 0.04671646 0.02866706 -0.05928607 -0.01880865
 0.06117865 -0.01097117 -0.01082487 -0.00549632]
[-0.02736923 -0.02910099 0.10215426 0.01589749 -0.08772849 -0.0306232
 0.10589305 -0.01714625 -0.0213967 -0.01057978]
[-0.02904471 -0.04827555 0.12588175 0.04267887 -0.11558219 -0.03194076
 0.13676412 -0.0277649 -0.03505271 -0.01766383]
[-0.01310665 -0.06989054 0.16219604 0.10406601 -0.14189737 -0.05860812
 0.1322667 -0.03664375 -0.05313568 -0.02524658]
[-0.01753599 -0.04902218 0.17749797 0.14805344 -0.19750176 -0.05738768
 0.12578288 -0.03220076 -0.06369046 -0.03399543]
[-0.01272553 -0.03009285 0.18375829 0.14791539 -0.22537968 -0.05748716
 0.14760441 -0.0333994 -0.07260577 -0.04758795]
[-0.04220003 -0.02751517 0.13580002 0.20135672 -0.19573463 -0.05221347
 0.17394501 -0.03602603 -0.09791395 -0.05949848]
[-0.06149473 -0.00233991 0.10004137 0.19313809 -0.18136734 -0.01971743
 0.17909166 -0.03960546 -0.09783437 -0.06991214]
[-0.0607504 -0.00206352 0.10729226 0.15392324 -0.15198632 0.00608615
 0.14221519 -0.03328746 -0.09654944 -0.06487995]
[-0.07822279 -0.03899021 0.04853275 0.11723052 -0.10876372 0.06057438
 0.1646978 -0.02600678 -0.08910666 -0.04994551]
[-0.09855581 -0.04909311 -0.06199136 0.0941686 -0.07134271 0.10163286
 0.19940272 -0.02101 -0.06356768 -0.02964375]
[-0.08935942 -0.04918198 -0.08734255 0.06079529 -0.01959968 0.0766642
 0.21037985 -0.01505742 -0.06233999 -0.02495848]
[-0.06424758 -0.04593602 -0.09867153 0.03670762 0.00216037 0.06280776
 0.17185657 -0.01139915 -0.03435147 -0.01892659]
[-0.05526766 -0.03584002 -0.07527534 -0.02355031 0.00341206 0.0449357
 0.17116289 -0.00777906 -0.0092621 -0.01253626]
[-0.0348513 -0.02113415 -0.05446602 -0.03079822 0.00404539 0.01443789
 0.1321079 -0.00396584 -0.00019195 -0.00518368]
[-0.01499041 -0.01328067 -0.036228 -0.01431068 0.00223692 -0.02242009
 0.09889434 -0.00135534 0.00348931 -0.00203541]
[-0.00639906 -0.00972667 -0.01120626 -0.00494806 -0.00369156 -0.01633873
 0.05578374 -0.00026357 -0.00277076 -0.00043904]
[-2.69962498e-03 -2.25820392e-03 1.65806082e-03 -3.01816704e-04
 -2.55697843e-04 5.22484863e-03 -4.31391789e-04 -5.20297272e-06
 -9.05714638e-04 -2.52564514e-05]
[-5.83963003e-04 -3.25864460e-03 -1.78567396e-04 -3.96431506e-06
 -3.82959515e-05 1.13403401e-03 3.81464534e-03 -3.57802676e-08
 -8.83841654e-04 -1.36676135e-06]
[0. 0. 0. 0. 0. 0. 0. 0. 0. 0.]
[0. 0. 0. 0. 0. 0. 0. 0. 0. 0.]
[-1.32790436e-08 -2.33176234e-08 -5.35930758e-06 7.20337994e-06
 -1.18714709e-07 -1.35897847e-06 -2.36483331e-08 -5.61320945e-09
 -2.96690189e-07 -3.90015931e-09]
[-1.43580455e-05 3.14226549e-04 -2.88471725e-04 2.31944825e-04
 -2.15029581e-06 -1.58173760e-04 -2.27071781e-04 -1.31115939e-07
 1.44981066e-04 -7.95375513e-07]
[-0.00015155 -0.00012925 -0.00067919 0.00256033 -0.0002589 -0.00074063
 -0.00027588 0.00011754 -0.00033989 -0.00010258]
[-0.00254094 0.00032793 -0.00802821 0.01369742 0.00451607 -0.00817639
 0.00341861 -0.000603 -0.00201204 -0.00059944]
[-0.01931573 0.0056581 0.00606371 0.05331572 0.00798196 -0.03335216
 -0.0017556 -0.00701641 -0.00893166 -0.00264792]
[-0.02388742 -0.00336609 0.04371389 0.08258828 -0.01061096 -0.05339828
 -0.00577987 -0.00785787 -0.0161402 -0.00526142]
[-0.02012172 -0.02424267 0.05952434 0.12798136 -0.02080636 -0.07593287
 0.00539951 -0.01585079 -0.02432311 -0.01162754]
[-0.01856949 -0.04133891 0.10487842 0.17110087 -0.06281245 -0.12456273
 0.04660736 -0.02790087 -0.0250953 -0.02230674]
[-0.01164395 -0.05761619 0.19185731 0.18529209 -0.11025481 -0.1210627
 0.05205739 -0.05126124 -0.03356742 -0.04380031]
[-0.03374857 -0.04941617 0.2343244 0.23632549 -0.17061657 -0.1047933
 0.05892037 -0.07960508 -0.02790735 -0.06348357]
[-0.02745529 -0.04771348 0.26183233 0.27816489 -0.18834579 -0.0918391
 0.00409955 -0.09944279 0.0052372 -0.09453737]
[-0.03695558 0.00875329 0.26902238 0.27503052 -0.22439854 -0.13118182
 0.00057612 -0.11771043 0.08179741 -0.12493347]
[-0.02184899 0.09820011 0.20239501 0.27881998 -0.21116461 -0.1695089
 0.00297704 -0.13881846 0.09890717 -0.13995844]
[-0.04082863 0.1304239 0.19408606 0.23189819 -0.21779191 -0.08866501
 0.00201792 -0.15694244 0.13362649 -0.18782522]
[-0.01635107 0.10650334 0.14980526 0.20468183 -0.21013315 0.04664495
 -0.00769732 -0.15633838 0.10668883 -0.22380459]
[-0.03874201 0.04690573 0.14901403 0.17571107 -0.15848377 0.11212647
 0.0442179 -0.1479743 0.04839259 -0.23116797]
[-0.01010108 0.01869351 0.11420185 0.09342135 -0.11973894 0.1120314
 0.12069613 -0.12351955 -0.03007739 -0.17560743]
[-0.05271549 0.00598901 0.0276801 0.09187557 -0.07193885 0.12615637
 0.17523533 -0.09693374 -0.07615661 -0.12919191]
[-0.07256261 0.06362369 -0.04791196 0.02240217 0.01673762 0.0479167
 0.2029548 -0.07017464 -0.05994204 -0.10304372]
[-0.05294321 0.09205353 -0.0832728 -0.04210577 0.04745888 -0.03545724
 0.22971047 -0.05514798 -0.02455792 -0.07573816]
[-0.05566206 0.10752452 -0.13080253 -0.09307207 0.05042396 0.05836258
 0.23518617 -0.03609279 -0.07574949 -0.06011836]
[-0.04977287 0.07026047 -0.13111572 -0.08093855 0.06386602 0.05648683
 0.21206951 -0.02524805 -0.07717667 -0.0384311]
[-0.04838281 0.02045244 -0.09512839 -0.0831639 0.06019236 0.0838294
 0.14531454 -0.01118701 -0.05567375 -0.01625284]
[-0.04393349 -0.03158352 -0.04882719 -0.02209227 0.03985675 0.0803813
 0.04364133 -0.00456602 -0.00637907 -0.00649772]
[-0.01271579 -0.01804182 -0.00595583 -0.00269969 0.0042999 0.02532498
 0.0073857 -0.00115375 0.00503166 -0.00147536]
[-0.00152525 -0.00230755 -0.00095311 -0.00023942 -0.00186953 0.00201305
 0.00100984 -0.00021075 0.00450483 -0.00042211]
[-3.99491582e-05 -1.01070688e-03 -6.56438991e-04 -2.94508845e-05
 -4.28973493e-04 -5.79631305e-04 2.39062472e-03 -2.47771404e-05
 4.35411319e-04 -5.61083871e-05]
[0. 0. 0. 0. 0. 0. 0. 0. 0. 0.]
[0. 0. 0. 0. 0. 0. 0. 0. 0. 0.]
[-7.50983236e-05 3.06540205e-05 1.08900545e-04 6.12970267e-04
 -1.99183432e-05 -5.52460493e-04 5.74534397e-06 -3.86079910e-06
 -1.05563027e-04 -1.36848087e-06]
[-0.00091408 0.00148898 -0.00031891 0.01368277 0.00033382 -0.00524002
 -0.00475173 -0.0002466 -0.003484 -0.00055022]
[-0.00864779 0.00223946 -0.00127094 0.05007887 0.00601839 -0.03232291
 0.00289324 -0.00287001 -0.01219339 -0.0039249]
[-0.03273533 0.01205469 0.01503309 0.11864014 0.01854994 -0.06534197
 -0.02882459 0.01125121 -0.03304619 -0.01558091]
[-0.03227625 -0.01598412 0.06932513 0.1703992 0.02233553 -0.11247537
 -0.02780641 0.01047298 -0.0460994 -0.03789145]
[-0.04233546 -0.06323312 0.13884613 0.18601352 0.01827502 -0.10465778
 -0.02517986 0.00388026 -0.04936674 -0.06224212]
[-0.04838681 -0.11896037 0.19543423 0.19251196 -0.00333469 -0.09562463
 0.02287867 -0.00857407 -0.05543922 -0.08050513]
[-0.04443504 -0.13128337 0.23038821 0.18379268 -0.03062336 -0.01244922
 0.00405327 -0.04757942 -0.03883142 -0.11303226]
[-0.01186584 -0.0846733 0.26512346 0.17876233 -0.10585346 0.02159172
 -0.01307921 -0.10385228 -0.05535051 -0.09080322]
[0.00215027 -0.0482238 0.25695288 0.13833593 -0.12766317 0.00976697
 -0.12794267 -0.1493026 0.08141608 -0.03549041]
[0.02312511 0.00846349 0.25937015 0.08253173 -0.17337705 -0.05082086
 -0.09563143 -0.19196154 0.16103347 -0.022733]
[0.09486405 0.07395597 0.27174824 0.09311132 -0.19984424 -0.06529559
 -0.13588245 -0.26479223 0.14346361 -0.01132877]
[0.12116382 0.09878302 0.24682975 0.08523874 -0.11067197 -0.06870281
 -0.07020822 -0.31721684 0.12671711 -0.11193245]
[0.13147937 0.10184944 0.24997151 0.12963468 -0.06017973 -0.05787845
 -0.103656 -0.32107556 0.12823142 -0.19837691]
[0.14731015 -0.00994704 0.26799959 0.15134415 -0.00811818 0.02007765
 -0.07677402 -0.30761456 0.15259634 -0.33687508]
[0.19143113 -0.05497231 0.22923927 0.01989358 -0.00526432 0.0759699
 0.00899261 -0.29754645 0.17135236 -0.33909562]
[0.1421674 -0.01065498 0.14696446 -0.01682622 0.06303502 0.06622521
 0.09492704 -0.25292864 0.05517093 -0.28808057]
[0.04287162 0.04906036 0.03472938 -0.03624581 0.09199567 0.0343724
 0.15916057 -0.22444977 0.07412076 -0.22561528]
[-0.01231836 0.12066615 -0.0182348 -0.07358333 0.08325814 0.08572591
 0.14035186 -0.18803151 0.04784104 -0.18567523]
[0.00479776 0.1820353 -0.04171383 -0.13756809 0.10456835 0.08414642
 0.12091283 -0.1281275 -0.02550817 -0.16354325]
[-0.02501634 0.15655099 -0.10037445 -0.15626 0.17009281 0.16896808
 0.10661642 -0.0887645 -0.08333202 -0.14848089]
[-0.07945093 0.08139586 -0.1240604 -0.14173459 0.18878959 0.21523044
 0.10286401 -0.04910947 -0.09485335 -0.09907159]
[-0.08132873 0.01237269 -0.08019006 -0.05457737 0.07598325 0.18099658
 0.04366572 -0.01889324 -0.03487421 -0.04315467]
[-0.03440146 -0.02863539 -0.01985276 -0.0155373 0.00568045 0.0997288
 -0.00791652 -0.00641993 0.02098318 -0.01362902]
[-0.00846672 -0.00425574 -0.00334528 -0.00209167 -0.00479681 0.02485064
 0.00383511 -0.00266694 -0.00104022 -0.00202238]
[-1.80665322e-03 -1.18016195e-03 -9.34375508e-04 -9.36405631e-05
 -8.59817519e-05 1.37671886e-03 3.50678479e-03 -6.74217445e-05
 -6.33371528e-04 -8.18970075e-05]
[0. 0. 0. 0. 0. 0. 0. 0. 0. 0.]
[-2.72089278e-06 -5.06181595e-06 -7.64916058e-06 1.05911007e-04
 -2.15071213e-06 -1.42945291e-05 -1.17834554e-06 -8.88734758e-06
 -1.45604681e-05 -4.94077176e-05]
[-4.83277690e-04 -2.38037133e-03 -1.86437869e-03 3.16386740e-03
 -1.18661800e-03 7.78615140e-05 -5.15655207e-04 6.21570973e-03
 -1.41013390e-03 -1.61700475e-03]
[-0.0016736 0.00040115 0.0012845 0.04127071 -0.0066295 -0.02802245
 -0.00853768 0.01849823 -0.01074335 -0.00584803]
[-0.0153324 0.00038714 0.0169255 0.09853697 0.00917915 -0.06689109
 -0.003144 0.00973449 -0.02646594 -0.02292979]
[-0.02772361 -0.01716977 0.0505843 0.15404253 0.04528078 -0.0872767
 -0.03048175 0.03353782 -0.04808415 -0.07270946]
[-0.04314282 -0.05365616 0.12278577 0.1879558 0.05960547 -0.10835522
 -0.05248677 0.06295275 -0.06231331 -0.11334555]
[-0.05691541 -0.11295606 0.1737134 0.14641714 0.06293742 -0.06956022
 -0.02370149 0.08627444 -0.04181443 -0.16439494]
[-0.07455457 -0.17565864 0.17036726 0.17438598 0.02375999 -0.02168285
 -0.0253674 0.11410614 -0.01119746 -0.17415825]
[-0.08631315 -0.21939877 0.20164864 0.203815 -0.00503771 0.03716469
 -0.06366073 0.09100187 -0.0236984 -0.13552155]
[-0.01862728 -0.16078717 0.1658051 0.18080056 -0.08897739 0.07980828
 -0.13344243 0.09008556 -0.03423105 -0.08043416]
[0.01432918 -0.09340816 0.09384459 0.09921198 -0.17539203 0.0481812
 -0.15870816 0.08301339 0.04762466 0.04130306]
[0.02781073 -0.07639144 0.09765264 0.09477526 -0.20375066 0.01744535
 -0.12565218 -0.00748677 0.08620456 0.08939252]
[0.10737218 -0.05828622 0.11028901 0.1818008 -0.25717083 0.00043352
 -0.17720573 -0.13870431 0.02152014 0.20995057]
[0.10298403 -0.08923539 0.1184881 0.14580752 -0.28091672 0.04255374
 -0.16281265 -0.16520666 0.04229508 0.24604292]
[0.10363804 -0.14480551 0.10847167 0.13749945 -0.2428273 -0.04433007
 -0.12576745 -0.1331287 0.1808942 0.1603557]
[0.15853745 -0.17793089 0.10982241 0.14276589 -0.22296064 -0.02786354
 -0.1364737 -0.11167001 0.11679705 0.14897552]
[0.20256172 -0.1969483 0.08291285 0.08810259 -0.14164266 0.01806302
 -0.12157373 -0.11173976 0.06997922 0.1102849]
[0.19653969 -0.10830225 0.03246165 0.12767252 -0.12260215 0.07134718
 -0.09652112 -0.13642916 -0.02613927 0.06197273]
[0.10675307 -0.02965859 -0.01467934 -0.03814281 -0.01299375 0.12112039
 -0.05623157 -0.13507524 0.10705461 -0.04814729]
[0.06897074 0.08590586 -0.05269789 -0.02090677 -0.01537847 0.10979073
 -0.04508058 -0.10806999 0.07193895 -0.09447283]
[0.10835457 0.09760086 -0.05593731 -0.04307207 0.09060699 0.09574027
 -0.05379216 -0.08323617 -0.00388938 -0.15237609]
[0.10159905 0.08281781 -0.10301367 -0.15246618 0.23529635 0.19849412
 -0.03443428 -0.09595831 -0.02090438 -0.21143007]
[-0.02947905 0.03914154 -0.16437204 -0.17411731 0.26984054 0.31655335
 -0.02626242 -0.08648974 0.04665881 -0.19147393]
[-0.12976532 -0.01224696 -0.09452116 -0.07577074 0.12091512 0.35090467
 -0.01997646 -0.04662122 0.01161883 -0.10453681]
[-0.07968967 -0.03015467 -0.02627188 -0.02374514 0.02073779 0.18875062
 -0.0205659 -0.02027905 0.02781694 -0.03659881]
[-0.03113187 -0.00398485 -0.00369706 -0.00353036 0.00881756 0.06610834
 -0.0098809 -0.00681479 -0.00534283 -0.01054317]
[-6.26960723e-03 -4.45278638e-05 -1.06129075e-04 -5.62280366e-05
 -3.15063895e-04 9.05735418e-03 -5.17661101e-04 -2.87308940e-04
 -1.23401510e-03 -2.26811651e-04]
[0. 0. 0. 0. 0. 0. 0. 0. 0. 0.]
[-9.93020149e-05 -2.15807158e-04 -2.15563137e-04 2.47880747e-03
 -1.63707853e-04 -3.70610622e-04 -2.57183983e-05 8.02606752e-04
 -5.59972599e-04 -1.63073197e-03]
[-0.00065196 -0.00198629 0.00210371 0.00137622 -0.00168446 -0.00559389
 -0.00117826 0.01469191 -0.00251752 -0.00455946]
[-0.00229027 -0.00272301 0.00888554 0.03679034 -0.00262286 -0.0382243
 -0.01157061 0.04329554 -0.01102567 -0.0205147]
[-0.02394902 -0.00387307 0.06298962 0.15104543 0.01866985 -0.13673671
 -0.01038058 0.0315427 -0.02338674 -0.06592135]
[-0.03377904 -0.04365056 0.09967793 0.22622272 0.05620509 -0.1486167
 -0.04333882 0.06992505 -0.03365584 -0.14899009]
[-0.05011511 -0.09497756 0.18071565 0.1813042 0.03586806 -0.11285117
 -0.07711532 0.13981974 -0.01183929 -0.19080986]
[-0.06568545 -0.13965677 0.12305734 0.11182057 0.05106989 -0.00722365
 -0.0331501 0.1634886 0.03089115 -0.23461126]
[-0.09449469 -0.23077084 0.13029952 0.06627832 0.00257391 0.10570804
 -0.05038397 0.17793496 0.05135095 -0.15849634]
[-0.03302128 -0.24478957 0.0953225 0.07114828 -0.0437335 0.10797632
 -0.10349416 0.21236713 0.00521377 -0.06698965]
[-1.91845465e-05 -2.12902904e-01 3.79892774e-02 5.36838360e-02
 -1.47765905e-01 1.63118660e-01 -1.45691290e-01 2.31083632e-01
 1.34533253e-02 7.05031957e-03]
[0.03961791 -0.17720766 0.05841357 0.04491528 -0.21514203 0.14275375
 -0.14494275 0.22747789 -0.06625121 0.09036525]
[0.02852903 -0.10782923 0.03221469 0.11241142 -0.33021066 0.07552721
 -0.16291909 0.18903977 -0.05455264 0.21778904]
[0.05377273 -0.12989771 0.07780302 0.15360239 -0.2916694 -0.03057544
 -0.19747598 0.10075863 -0.06439652 0.3280786]
[0.07359295 -0.15109016 0.04544923 0.21752247 -0.38087729 0.02288433
 -0.17163433 -0.0030716 -0.13061443 0.47783944]
[0.074957 -0.22049451 -0.02734672 0.21925355 -0.40119594 -0.0583863
 -0.18308812 0.04605838 0.04132586 0.50891566]
[0.14168625 -0.20711115 -0.04241731 0.07529309 -0.37930399 0.03346143
 -0.22369646 0.12902749 0.0341999 0.43886]
[0.21141247 -0.16797936 -0.12738042 0.10665549 -0.2377325 0.06309421
 -0.22793113 0.16932707 -0.06748255 0.27801618]
[0.18069638 -0.15227996 -0.08340979 0.0455689 -0.20164549 0.082962
 -0.24366388 0.17897336 0.04488613 0.14791194]
[0.11031 -0.02177473 -0.06024024 0.03114653 -0.10911791 0.1077795
 -0.24750783 0.12141071 0.0218596 0.04613405]
[0.05478871 0.03201843 -0.05789844 0.04303974 -0.11155674 0.10092051
 -0.23016654 0.09650137 0.05393569 0.01841641]
[0.08648653 0.01024258 -0.01570233 -0.00524871 0.02050344 0.10766245
 -0.213273 0.02389942 0.0638347 -0.07840572]
[0.13416202 -0.00925069 -0.03245557 -0.11385434 0.1926358 0.17645051
 -0.19637959 0.00462393 0.0581559 -0.21408845]
[0.06620664 -0.06014267 -0.16558486 -0.18507357 0.22815776 0.35533297
 -0.14856288 -0.03271556 0.17275304 -0.23037009]
[-0.08742211 -0.09710549 -0.12345287 -0.11060936 0.08279711 0.4648276
 -0.0541186 -0.05456531 0.12451582 -0.14486663]
[-0.09210921 -0.04883096 -0.03450321 -0.02783534 0.01083206 0.317626
 -0.04507726 -0.03533884 0.01282551 -0.0575884]
[-0.02857796 -0.00333147 -0.00462763 -0.00272265 0.00599763 0.07578007
 -0.01217661 -0.00713135 -0.00616445 -0.01704556]
[-0.00170257 -0.00133251 -0.00029892 -0.00014451 -0.0005777 0.00712461
 -0.00221931 -0.00025995 -0.00023143 -0.00035772]
[2.02996354e-03 -1.34555410e-06 -5.86836213e-05 -9.71802137e-07
 -8.07521283e-05 -3.28835131e-06 -2.52766422e-05 -1.07233494e-03
 -9.45447755e-06 -7.77856156e-04]
[-6.60479272e-05 -1.20104327e-04 4.86336590e-04 -1.87464268e-03
 -2.81374902e-03 -2.16418877e-04 -2.85478745e-05 1.19518675e-02
 -4.21717239e-04 -6.89697918e-03]
[-0.00049195 -0.00071815 0.0020395 -0.00086393 -0.00190954 -0.00754644
 -0.00129566 0.03242726 -0.00371602 -0.01792507]
[-0.00460678 -0.001926 0.01321854 0.034572 -0.00805614 -0.04225024
 -0.01249404 0.09037858 -0.01201499 -0.05682091]
[-0.03790732 -0.00931374 0.08056311 0.17030029 -0.00112986 -0.17805059
 -0.01940499 0.10589921 -0.00385921 -0.10709701]
[-0.05935971 -0.0449781 0.11575601 0.20124832 0.03365505 -0.1798763
 -0.07099522 0.1259125 0.03538112 -0.15674312]
[-0.06354365 -0.09994026 0.11981797 0.15071557 -0.00252559 -0.1146858
 -0.09790225 0.14729007 0.10462578 -0.1438521]
[-0.07736878 -0.139175 0.10204778 0.0753359 -0.00966955 -0.02021804
 -0.0747356 0.19558987 0.1255379 -0.17734444]
[-0.06840204 -0.22940864 0.09261398 0.02241373 -0.07143497 0.13112575
 -0.08104656 0.16287549 0.06335496 -0.02209198]
[0.00490236 -0.27121657 0.08355176 0.00555938 -0.04052745 0.10028423
 -0.10167133 0.14409503 0.111153 -0.03613035]
[0.01969818 -0.24139407 0.16943647 0.02090477 -0.13143909 0.12537779
 -0.15437695 0.16289066 0.05607151 -0.02716951]
[0.0084294 -0.18700029 0.10907029 0.00963142 -0.1685029 0.1775635
 -0.14791247 0.260571 -0.01688246 -0.04496739]
[0.04544168 -0.10754856 0.04672403 0.0356482 -0.21598488 0.04600824
 -0.17220315 0.25166374 0.10683054 -0.03658037]
[0.0432476 -0.06737013 0.05437245 0.08942915 -0.21738008 -0.07581288
 -0.21620904 0.1495167 0.10088876 0.13931747]
[0.10480968 -0.03487609 0.09210867 0.21269658 -0.39654842 -0.1304985
 -0.23779039 0.19462009 -0.08949426 0.28497258]
[0.16319193 0.01858599 0.04720029 0.22313945 -0.43040797 -0.21345569
 -0.26050192 0.23649962 -0.06547157 0.28121993]
[0.26411214 -0.07305893 -0.00452037 0.1260543 -0.33715147 -0.12578979
 -0.30856431 0.27292231 0.02422859 0.16176763]
[0.24103561 -0.01737387 -0.03424035 0.12458614 -0.17773426 -0.05937567
 -0.35510647 0.25373533 -0.02766417 0.05213743]
[0.16944972 -0.0819848 -0.06199674 0.14456031 -0.071755 -0.02693464
 -0.41878852 0.25081053 0.07515488 0.02148348]
[0.11729348 -0.06154611 0.00974419 0.0925855 -0.06047307 0.04265259
 -0.39692667 0.17635183 0.11769027 -0.0373722]
[0.08428563 -0.09577134 -0.03242847 0.15549499 -0.07332145 0.10096286
 -0.33196563 0.14296591 0.06847876 -0.01870185]
[0.07557779 -0.12103936 -0.02276843 0.09411556 -0.00832314 0.11336711
 -0.28225982 0.03762599 0.10711289 0.00659065]
[0.1774665 -0.1493984 -0.06233022 0.01413716 0.05155273 0.15742373
 -0.2665861 0.05876538 0.16940583 -0.15043621]
[0.18373217 -0.18332247 -0.10019781 -0.20155132 0.07657377 0.45383111
 -0.22535431 -0.0047577 0.19870315 -0.1976565]
[-0.01588799 -0.1556205 -0.14316258 -0.14440808 0.00419055 0.63853663
 -0.12941445 -0.07611182 0.15422305 -0.1323449]
[-0.08808798 -0.06675962 -0.04970821 -0.03823884 -0.01709401 0.42170691
 -0.06441186 -0.04536996 0.0067983 -0.05883469]
[-0.02264705 -0.00648208 -0.0057738 -0.00352748 -0.0183559 0.10128647
 -0.02494101 -0.01143181 0.00606864 -0.01419594]
[-0.00112455 -0.00103852 -0.00053347 -0.00011484 -0.00097494 0.00701428
 -0.00260695 -0.00228314 0.00252077 -0.00085863]
[-4.98965255e-06 -2.06292884e-06 -3.47316586e-06 -3.85449603e-05
 -2.05627133e-04 -2.65352901e-05 -1.58083014e-06 7.77345849e-04
 -1.26693485e-05 -4.81862400e-04]
[-7.76395827e-05 -7.70350471e-06 -1.26449464e-04 -1.92245923e-03
 -3.09284660e-03 -2.83491507e-04 -2.91029774e-05 1.55946240e-02
 -2.24116127e-04 -9.83081292e-03]
[-0.0010643 -0.00050022 0.00319599 0.00643283 -0.00460563 -0.00411336
 -0.00167771 0.03997455 -0.00840765 -0.02923447]
[-0.00745282 -0.00218435 0.01986398 0.04963265 -0.02965954 -0.04684505
 -0.01827325 0.12508613 -0.01748569 -0.07268209]
[-0.03932913 -0.01483952 0.06776448 0.15864635 -0.04944406 -0.14989832
 -0.02497148 0.17271365 0.01134693 -0.13198888]
[-0.0530043 -0.06026899 0.12791955 0.11737645 -0.02816503 -0.14909525
 -0.08967776 0.14555588 0.07986756 -0.09050788]
[-0.07368793 -0.09165518 0.06769766 0.06006465 -0.06527297 -0.04683153
 -0.09866549 0.09249791 0.15694137 -0.00108845]
[-0.07233988 -0.11727122 0.02815159 0.01183766 -0.05767553 0.06245192
 -0.04946143 0.08019697 0.13833576 -0.02422596]
[-0.05837623 -0.18498366 -0.01206444 -0.05546384 -0.05340686 0.18340926
 -0.04310532 0.06114155 0.13728818 0.02556134]
[0.01465827 -0.22668731 0.07232563 -0.11554684 -0.02762785 0.1370956
 -0.10082857 0.03196027 0.19797648 0.01667428]
[0.03293662 -0.18937519 0.12634338 -0.21071419 -0.0866932 0.22181937
 -0.14350988 0.04373928 0.15594508 0.04950862]
[-0.02624216 -0.13245405 0.07116724 -0.28180647 -0.07902855 0.29658881
 -0.11863707 0.11353431 0.09916531 0.0577119]
[0.03945046 -0.07333449 0.02947991 -0.2182622 -0.07641704 0.15103176
 -0.15225984 0.16154025 0.08795483 0.05081621]
[0.12275951 0.04514529 0.0533201 -0.05320277 -0.16793689 -0.0049358
 -0.20907716 0.17049214 0.00246429 0.04097088]
[0.08661886 0.20417939 0.08484518 0.20625964 -0.47904187 -0.17191298
 -0.15763152 0.26617989 -0.17244808 0.13295114]
[0.04500255 0.30379677 0.08249838 0.32139394 -0.3712582 -0.29283834
 -0.27649608 0.31870198 -0.26508683 0.13428552]
[0.14059316 0.12211952 0.08075513 0.23949571 -0.10396656 -0.29386851
 -0.39553422 0.34330425 -0.13566549 0.00276612]
[0.21335597 -0.00733644 0.02970262 0.17504121 -0.02196777 -0.21594839
 -0.47524261 0.31801742 -0.00942545 -0.00619717]
[0.21346015 -0.10511497 0.06384252 0.14517491 0.00617666 -0.11464547
 -0.47470176 0.2012302 0.04756342 0.01701402]
[1.65075362e-01 -1.51728481e-01 -1.49523839e-04 1.30939350e-01
 -2.29768585e-02 -3.35526802e-02 -4.15591806e-01 2.24978745e-01
 1.07355483e-01 -4.35052346e-03]
[0.09818716 -0.1909647 -0.04862674 0.22587301 -0.04670775 0.0381841
 -0.32428128 0.1533484 0.08771743 0.00726992]
[0.04562617 -0.21066524 -0.05494517 0.13815911 -0.03275287 0.17029147
 -0.26707751 0.14341149 0.11521538 -0.04726287]
[0.14587745 -0.22810714 -0.05429052 0.04616864 -0.0436115 0.26651302
 -0.27393273 0.07912447 0.1816607 -0.11940195]
[0.24383917 -0.20847474 -0.11447858 -0.12294859 -0.08048749 0.50273901
 -0.19559716 -0.0453648 0.19452459 -0.17375216]
[0.05262856 -0.13664965 -0.14206044 -0.11850034 -0.14315604 0.75708652
 -0.14364216 -0.07366105 0.07097992 -0.12302547]
[-0.09184254 -0.05672162 -0.04490836 -0.02811147 -0.09128843 0.5151459
 -0.09256438 -0.03411217 -0.0184206 -0.05717636]
[-0.02700438 -0.00685714 -0.00449699 -0.00363221 -0.02403246 0.10800617
 -0.03324882 -0.00451929 0.01267093 -0.01688578]
[-0.00055235 -0.00051378 -0.0003638 -0.00010279 -0.00184476 0.0069584
 -0.00233712 0.00689375 -0.00703999 -0.00109755]
[-1.10212113e-05 -2.58415912e-06 -7.24244637e-06 -7.04948761e-05
 -2.48152704e-04 -4.30147084e-05 -2.50183393e-06 1.26972515e-03
 -2.14155189e-05 -8.63297435e-04]
[-3.92934831e-04 -2.76780847e-05 -1.07725158e-04 -1.58668426e-03
 -3.31852655e-03 -7.17544695e-04 -7.86249439e-05 1.84793398e-02
 -3.65039188e-04 -1.18845776e-02]
[4.34414978e-05 -3.31393880e-04 3.00747203e-03 5.12470631e-03
 -1.04933381e-02 -3.93744279e-03 -3.05779371e-03 5.73852174e-02
 -7.57634407e-03 -4.01644893e-02]
[-0.01191382 -0.00663477 0.02701684 0.06384385 -0.03792098 -0.03654968
 -0.01954762 0.12715034 -0.02843471 -0.07700945]
[-0.04134975 -0.01220723 -0.00055037 0.06561664 -0.04893671 -0.06739213
 -0.03525693 0.18948536 0.04509161 -0.09450027]
[-0.04514184 -0.05617612 0.04328044 -0.01608623 -0.05465755 -0.06302887
 -0.08038961 0.16562943 0.09582105 0.01074901]
[-0.06079927 -0.09886052 0.0125418 -0.08256184 -0.08719021 0.03522486
 -0.05968402 0.06636727 0.17544997 0.09951186]
[-0.04303222 -0.11540136 -0.10325219 -0.16537681 -0.04575793 0.14563192
 0.00423528 0.06400751 0.18970127 0.06924482]
[-0.0331228 -0.1407944 -0.11352314 -0.29242086 0.00403085 0.23927267
 0.01410523 -0.03816334 0.20186548 0.15875027]
[0.01846441 -0.18537815 -0.10708726 -0.39122686 0.09614722 0.268738
 -0.0601784 -0.0035617 0.24942772 0.11465473]
[-0.03817249 -0.14260949 -0.10860787 -0.44483918 0.06402992 0.28452107
 -0.0407094 0.0149714 0.2431393 0.16827627]
[0.01775048 -0.09393512 -0.13082956 -0.4260785 0.05441679 0.28181934
 -0.0795968 -0.00496853 0.17441963 0.20700139]
[0.04735877 -0.03570513 -0.18657544 -0.33337948 0.12540404 0.26570016
 -0.1025556 -0.00192357 0.11489344 0.10678308]
[0.06054958 0.17567909 -0.2310046 -0.03929593 -0.20417075 0.19611178
 -0.05622173 0.16854562 0.01657789 -0.08677118]
[-0.01960523 0.44170207 -0.11991864 0.20542324 -0.54673648 0.04500088
 -0.16098705 0.27565402 -0.07548841 -0.04504468]
[-0.13709615 0.48949176 -0.08200017 0.2575677 -0.20354401 -0.09118913
 -0.33084956 0.38684887 -0.23279345 -0.05643553]
[-0.09972442 0.19016056 -0.01513769 0.21475194 0.05270747 -0.18703869
 -0.39059842 0.46063662 -0.21558943 -0.01016829]
[0.0996634 -0.02062897 0.05673311 0.18178925 0.0690717 -0.26280153
 -0.40906194 0.33791333 -0.10447167 0.05179321]
[0.17158525 -0.13652927 0.07750811 0.17179503 -0.03099443 -0.24548197
 -0.36802787 0.25543416 0.05350329 0.05120722]
[0.12139449 -0.168483 0.00478614 0.20402534 -0.00594234 -0.20160457
 -0.32591963 0.27358675 0.08085073 0.01730536]
[0.11505666 -0.22296545 -0.02800143 0.21980788 -0.11310077 -0.10297222
 -0.23904619 0.24665986 0.03229202 0.0922692]
[0.09687358 -0.22105627 -0.04990423 0.07999554 -0.1090648 0.00354277
 -0.18307084 0.22570626 0.09643288 0.06054506]
[0.20134225 -0.19479331 -0.0652711 -0.0109595 -0.1240478 0.08389383
 -0.16701065 0.11165789 0.19315493 -0.0279664]
[0.29675794 -0.15989669 -0.10578944 -0.08848163 -0.19598106 0.3213746
 -0.08855607 -0.06950802 0.17609487 -0.08601446]
[0.11108282 -0.10574069 -0.09913146 -0.07504915 -0.16243692 0.59376919
 -0.10664021 -0.07012989 0.02443336 -0.11015738]
[-0.0828305 -0.03704323 -0.02719091 -0.01471267 -0.09563913 0.47710994
 -0.10234054 -0.0250951 -0.04204505 -0.050213]
[-0.033102 -0.0090616 0.00043387 -0.00215198 -0.02341686 0.11656886
 -0.02903633 -0.00459746 -0.00102273 -0.01461376]
[-3.83597391e-04 4.13543021e-05 -3.84674087e-04 -4.29684515e-05
 -9.57712939e-04 4.57679527e-03 -2.96143442e-03 8.59848747e-04
 1.30880973e-03 -2.05642032e-03]
[-6.85271298e-05 -1.06735743e-05 -2.84327143e-05 -8.02508730e-05
 -1.46372287e-04 -1.03026279e-04 -5.15044776e-05 1.03169819e-03
 -4.83077456e-05 -4.94603184e-04]
[0.00066457 0.0001119 -0.00033548 -0.00153332 -0.00732148 -0.00250096
 -0.0003081 0.02653185 -0.00077532 -0.01453364]
[-0.00293673 -0.00011939 -0.00093003 0.00401092 -0.03011211 -0.00611062
 -0.00099974 0.09764208 -0.00561499 -0.05482941]
[-0.00919618 -0.00442237 -0.00487142 0.04185541 -0.03599338 -0.02966924
 -0.02027577 0.15078527 -0.01449189 -0.07372045]
[-0.06645414 -0.00600223 -0.04472678 0.01002324 -0.0674222 -0.02102236
 -0.03355096 0.20425002 0.02169873 0.00320659]
[-0.06136981 -0.03599273 -0.11243103 -0.12055056 -0.04065435 0.0108672
 -0.03345975 0.13844931 0.11684114 0.13830054]
[-0.02128825 -0.08931509 -0.23130302 -0.21261227 -0.02134972 0.13318025
 -0.00023758 0.06556881 0.18991265 0.18744418]
[0.00759936 -0.1110401 -0.3138105 -0.35844427 0.02960615 0.15595706
 0.07476995 0.07302157 0.27807724 0.16426356]
[-0.01621711 -0.13739832 -0.3297376 -0.41236222 0.10845176 0.17443167
 0.05408623 -0.00369202 0.26153624 0.30090085]
[-0.05848666 -0.19089477 -0.34685799 -0.37477902 0.19743323 0.1534044
 0.06042572 0.08318859 0.29429695 0.18226969]
[-0.0331925 -0.17782857 -0.45909369 -0.30110496 0.23232825 0.15907116
 0.04558177 0.10712198 0.18735728 0.23975873]
[0.00934787 -0.1780384 -0.47371218 -0.21682301 0.24851988 0.21881567
 0.00706937 0.06273287 0.11161982 0.21046817]
[-0.00639096 -0.07244948 -0.54212666 -0.09931652 0.22029661 0.30936071
 0.07975703 -0.02719085 0.14892524 -0.01086561]
[-0.02866802 0.21761994 -0.56925619 0.0958857 -0.33034417 0.3683522
 0.0758854 0.03892485 0.23668902 -0.10508894]
[-0.24238086 0.58450699 -0.40467712 0.16177392 -0.4793489 0.12569766
 -0.1692922 0.18427718 0.26805821 -0.02861584]
[-4.14571911e-01 5.69688916e-01 -2.73029506e-01 2.13729590e-01
 -5.65218506e-04 -4.99046929e-02 -3.74687403e-01 3.22451115e-01
 -6.10254109e-02 6.79150969e-02]
[-0.39928532 0.16798533 -0.12101251 0.09330575 0.26981962 -0.13087784
 -0.2834208 0.40812868 -0.15112521 0.14648148]
[-0.13988705 -0.05823247 -0.118141 0.16741239 0.11386096 -0.18352187
 -0.24732859 0.31495541 -0.12042565 0.2713078]
[-0.00039193 -0.07837547 -0.05299878 0.16390091 -0.0364591 -0.20740871
 -0.20567764 0.28292558 -0.0752318 0.20971692]
[0.10165267 -0.15664603 0.06174846 0.15165447 -0.04715065 -0.34092897
 -0.17483632 0.18094493 -0.01113236 0.23469366]
[0.10499218 -0.175405 -0.02527197 0.12879214 -0.13279417 -0.41643539
 -0.10470244 0.18601659 0.08150538 0.35330266]
[0.14896166 -0.14705089 -0.039495 -0.05435614 -0.13553178 -0.36529818
 -0.01243895 0.17380027 0.19130304 0.24010569]
[0.23503037 -0.1075353 -0.08044189 -0.08422846 -0.15225925 -0.33075482
 0.04889787 0.08887416 0.26230288 0.12011482]
[0.30561668 -0.07451151 -0.1105638 -0.09123538 -0.17337191 -0.11796733
 0.10529304 -0.05711915 0.23393133 -0.02007258]
[0.16675924 -0.04767308 -0.05275501 -0.05459943 -0.12621415 0.1134878
 -0.00763625 -0.05516401 0.13874024 -0.07494536]
[-0.04682561 -0.02195853 0.01004332 -0.00389921 -0.05459535 0.20933348
 -0.06508163 -0.02192315 0.03162992 -0.03672308]
[-0.02009731 -0.00614138 0.00385004 -0.00099993 -0.00899571 0.05703797
 -0.03147238 -0.00770032 0.02585095 -0.01133191]
[-2.62104644e-04 5.57932537e-04 -7.82218049e-05 -2.78188654e-05
 -6.23631931e-04 2.48953071e-03 -1.05978537e-03 -7.97560555e-04
 6.68427849e-04 -8.66768300e-04]
[-2.45776246e-05 -2.28384101e-06 -6.28988755e-06 -3.41569576e-05
 -4.52426102e-05 -3.21558618e-05 -1.26552432e-05 4.38768067e-04
 -2.19136127e-05 -2.59492372e-04]
[-0.00051163 -0.00020579 -0.00031498 -0.00156903 -0.00695793 -0.0028632
 -0.0008632 0.02270594 -0.00074321 -0.00867698]
[-0.00228876 -0.00047683 -0.00059046 -0.00478348 -0.02665476 -0.00576345
 -0.00170538 0.0895843 -0.00356674 -0.04375445]
[-0.01145479 -0.0005009 -0.02312775 -0.00565318 -0.05081002 -0.01022202
 -0.01477061 0.15800995 0.00420524 -0.0456759]
[-7.18267262e-02 5.25797077e-05 -8.23357180e-02 -3.87311801e-02
 -7.78011382e-02 1.13098212e-02 -4.07357626e-02 1.96916178e-01
 -4.72577568e-03 1.07877724e-01]
[-0.01586244 -0.02782433 -0.26749152 -0.15432186 -0.01087123 0.06063747
 -0.01840653 0.1392087 0.08319081 0.21174133]
[0.07195996 -0.05191118 -0.46672514 -0.25090805 0.08883428 0.14676118
 0.07848666 0.02297164 0.11573244 0.24479812]
[0.05026208 -0.07733534 -0.54336834 -0.32486939 0.19277531 0.13704982
 0.12826224 0.10507375 0.16440056 0.16774935]
[0.00066087 -0.12578431 -0.44075638 -0.31399435 0.26024276 0.10114617
 0.11577439 0.10446404 0.11421378 0.18403274]
[-0.01435561 -0.1700525 -0.44119427 -0.17404145 0.2230262 0.02026541
 0.14092886 0.02241803 0.14897779 0.24402745]
[0.03158455 -0.255389 -0.48272634 -0.04030419 0.35962909 0.16766818
 0.073176 -0.05488154 -0.01864228 0.21988492]
[0.05465389 -0.30394903 -0.46809694 -0.06368205 0.46863344 0.28825819
 0.17671682 -0.17804943 -0.04306165 0.06857713]
[0.05764593 -0.09552705 -0.48681626 0.02830327 0.37093863 0.34908009
 0.17752139 -0.39047766 0.12988418 -0.14055209]
[-0.13342857 0.22726378 -0.45041654 0.15101646 -0.11271811 0.3013123
 0.05183442 -0.43527284 0.38141826 0.01899075]
[-0.43694916 0.69636011 -0.37177002 0.29674357 -0.2667824 0.03112063
 -0.20292211 -0.17051671 0.23885511 0.18586183]
[-0.55598885 0.5003469 -0.31212437 0.15926428 0.13004549 -0.13270013
 -0.21677874 0.15317546 0.05351735 0.2212427]
[-0.50827634 0.11101042 -0.23505652 0.08953638 0.32680115 -0.30093452
 -0.08010835 0.33223629 0.00288738 0.26190341]
[-0.22884668 -0.00442537 -0.19665192 0.10302591 0.13312566 -0.28271687
 -0.09367925 0.27928403 -0.02293424 0.31381854]
[-0.05130663 -0.07818849 -0.10187688 0.11149908 0.01580939 -0.23700514
 -0.11090381 0.22340506 -0.09339975 0.32196736]
[0.03598501 -0.15877143 0.05804636 -0.0070335 0.00500274 -0.30129814
 -0.12195171 0.06599153 0.05129433 0.37273467]
[0.03253631 -0.12842147 -0.02475361 -0.08596499 -0.01087233 -0.39701235
 -0.04070757 0.09272437 0.18632939 0.3761425]
[0.12902433 -0.08325659 -0.04380411 -0.19832 0.01029814 -0.51165283
 0.08836425 0.05812316 0.26094407 0.29027924]
[0.29240614 -0.05888415 -0.11594239 -0.15397893 -0.04010869 -0.53780037
 0.2096819 0.01273289 0.23406194 0.15783146]
[0.32663667 -0.03295111 -0.17370994 -0.09789291 -0.09652094 -0.41147321
 0.27030516 -0.04383733 0.22073442 0.03870919]
[0.22218592 -0.02203294 -0.01446042 -0.04050673 -0.04945724 -0.23766465
 0.11865456 -0.0357041 0.13579521 -0.07680941]
[-0.00419841 -0.01049891 0.05052677 0.00042364 -0.01481979 -0.00081266
 -0.02710337 0.00143522 0.03712453 -0.03207703]
[-0.01047928 -0.00452671 0.03068806 -0.00018194 -0.00484722 0.01551512
 -0.03539979 0.00432489 0.01565689 -0.01075]
[-6.08540795e-05 3.60944832e-04 3.20889195e-03 -3.30201146e-05
 -1.62904186e-03 -5.14317187e-04 -2.02578586e-03 2.52660108e-03
 -1.54272490e-03 -2.90694297e-04]
[-1.22938937e-09 7.10358790e-06 -1.02707088e-06 -2.54582301e-06
 -3.08804609e-08 -1.69612377e-07 -1.83814223e-07 -7.52450887e-07
 -1.35250434e-06 -1.04001526e-06]
[5.47630305e-04 -6.12944132e-05 -6.73651302e-05 -6.27858099e-04
 -3.66559532e-03 -6.58883946e-04 -7.03421829e-04 8.57163500e-03
 -1.63391494e-04 -3.17145651e-03]
[-0.00134843 -0.00020849 -0.00052344 -0.00307034 -0.01439446 -0.00260336
 -0.0015664 0.05316546 -0.00131506 -0.02813547]
[-0.01078468 0.00110653 -0.02921858 -0.00666523 -0.03598838 -0.00017038
 -0.01312813 0.11166031 0.00065349 -0.01746493]
[-0.05086133 0.00247709 -0.11956396 -0.0643898 -0.02474696 0.03406323
 -0.0440339 0.12611203 -0.03324594 0.17418954]
[0.01756407 -0.02085108 -0.33300409 -0.14957151 0.10114922 0.08763959
 0.0146544 0.07731112 -0.03093465 0.23604321]
[0.11856338 -0.0434401 -0.50826389 -0.23904493 0.25637385 0.09277071
 0.14467648 0.02860552 -0.03427352 0.1840325]
[0.15182273 -0.07322592 -0.49867517 -0.28496075 0.29833126 0.15012452
 0.11421573 0.02599891 -0.0347237 0.1510925]
[0.06242335 -0.09467109 -0.36468717 -0.19913775 0.28742155 0.10328427
 0.13188818 -0.01705491 -0.05894386 0.14947648]
[0.05531849 -0.18184291 -0.27014545 -0.10844583 0.2443282 0.10633803
 0.13653494 -0.08131714 -0.00193474 0.10116601]
[0.09807987 -0.36335096 -0.19353126 -0.13390075 0.38879111 0.22209062
 0.16172582 -0.16715679 -0.07852242 0.06577352]
[0.09066016 -0.41870925 -0.08767588 -0.09932511 0.51710409 0.27556574
 0.16066635 -0.42409456 0.05414978 -0.06834101]
[0.01287477 -0.16802819 -0.10496558 0.08994364 0.29536527 0.30676645
 0.13244231 -0.66216803 0.20944244 -0.11167318]
[-0.31878802 0.3055923 -0.05129265 0.24921969 -0.07213318 0.17900079
 -0.03418862 -0.67623371 0.33726421 0.08155798]
[-0.52742392 0.65514559 -0.08880071 0.18994479 -0.08124138 -0.00464369
 -0.14278521 -0.32470506 0.12417378 0.20033549]
[-0.60915411 0.42288527 -0.23116852 -0.00145948 0.18995236 -0.19922903
 0.01352442 0.01056691 0.19273932 0.21134298]
[-0.52465886 0.10748852 -0.24603094 0.07422025 0.29642621 -0.32621866
 0.04829882 0.14651261 0.07290409 0.3510581]
[-0.26405889 -0.03186972 -0.13824371 0.11067552 0.2392447 -0.19193824
 -0.07191031 0.12049145 -0.08945599 0.31706509]
[-0.08608811 -0.18906593 -0.09530219 0.11148867 0.13619103 -0.13476346
 -0.11495692 0.12816904 -0.02883353 0.27316049]
[-0.0694018 -0.1911111 -0.06712946 -0.0717687 0.10605498 -0.11388499
 -0.025551 0.09891742 0.03093264 0.30294165]
[-0.08831752 -0.12574589 -0.06515656 -0.20896429 0.15342292 -0.1444809
 -0.01704586 0.12018335 0.08231154 0.29379243]
[0.09841257 -0.0851827 -0.0648246 -0.18327963 0.11205166 -0.2769874
 0.13119565 0.06699719 0.01098575 0.19063103]
[0.27587613 -0.06151224 -0.11994746 -0.17834379 0.04089243 -0.33143547
 0.28887701 0.01944007 0.0238009 0.04235245]
[0.32151631 -0.04833099 -0.10791303 -0.10506074 -0.02831551 -0.33370426
 0.33760032 0.00568077 0.04187366 -0.08334658]
[0.19969071 -0.03576358 0.0469236 -0.0395748 -0.05091664 -0.20446944
 0.1696683 0.00619331 0.02077055 -0.11252192]
[0.01329732 -0.01807481 0.10791548 -0.00363091 -0.00188613 -0.03484325
 -0.03498364 0.01055255 0.0062499 -0.04459642]
[-0.00353057 -0.00629173 0.07152417 -0.00065534 -0.0030685 -0.00204087
 -0.04311496 0.00101844 -0.00170164 -0.01213898]
[-0.00052181 -0.00025564 0.01945716 -0.00063494 -0.00485064 -0.00380432
 -0.00700716 -0.00089492 -0.00098956 -0.00049817]
[-2.81472057e-05 -8.63681862e-07 -4.74740227e-06 -4.00480843e-04
 -1.54043519e-05 1.58699532e-03 -3.23910645e-05 -2.33089741e-05
 -1.44614241e-04 -9.37037810e-04]
[-2.63777802e-05 -2.01356329e-06 -2.80192541e-03 3.13038519e-03
 -1.84487039e-03 -2.36051274e-04 -1.18910439e-05 3.18255601e-03
 -2.87971692e-04 -1.10184005e-03]
[-0.00194117 0.00010111 -0.00241299 0.0009677 -0.00722269 -0.00101658
 -0.00027521 0.02689861 -0.00070562 -0.01439316]
[-0.0215607 0.00281638 -0.0268169 0.00234421 -0.00791966 -0.00016428
 -0.00919574 0.05369724 -0.00723144 0.01403092]
[-0.0458038 0.00298944 -0.08866964 -0.03017117 0.08415829 0.0186287
 -0.07086678 0.04818922 -0.04930753 0.13085344]
[0.08003475 -0.0253185 -0.25875187 -0.12876187 0.20974422 0.02179798
 -0.00045035 0.04833364 -0.08765761 0.14102952]
[0.15481856 -0.04978946 -0.26712739 -0.22447294 0.30776882 0.0125376
 0.1058296 -0.00344921 -0.16785826 0.13174231]
[0.22938783 -0.08105005 -0.19169959 -0.2439732 0.35176471 0.04805717
 0.10694191 -0.05715284 -0.25927392 0.0969976]
[0.14294432 -0.09786348 -0.1279995 -0.18570083 0.32353336 0.11490484
 0.1499753 -0.13693547 -0.24183024 0.05897186]
[0.1579404 -0.20258114 -0.04346661 -0.14894193 0.2496122 0.20537408
 0.15642531 -0.20949881 -0.19714786 0.03228438]
[0.13069622 -0.3878383 0.03883201 -0.15669419 0.30825776 0.260553
 0.21467285 -0.31556526 -0.07932696 -0.01358658]
[0.11348379 -0.42372862 0.08642437 -0.11195872 0.35514972 0.12539776
 0.29183567 -0.52832472 0.15641324 -0.06469228]
[-0.05527947 -0.09300698 0.10362098 0.12034224 0.19763601 0.12409632
 0.12836517 -0.67019737 0.22348842 -0.07906523]
[-0.36659649 0.36440405 0.20521395 0.11046419 -0.05943281 0.05794382
 -0.06627912 -0.57062167 0.31579182 0.00911134]
[-0.57170123 0.59755367 0.09457587 0.09905721 -0.04540698 -0.08629905
 -0.05014956 -0.28213283 0.22317044 0.02133124]
[-0.58723408 0.36870915 -0.09047565 0.01888454 0.14764869 -0.16564398
 0.06022171 -0.04707442 0.14655513 0.14840899]
[-0.50452018 0.04342052 -0.07387897 -0.00885737 0.35209656 -0.20473126
 0.07381776 0.04323884 -0.04361966 0.32303363]
[-0.2039772 -0.24836548 -0.11479052 0.05286654 0.4004918 -0.18843794
 -0.13728623 0.18332845 -0.00989833 0.2660684]
[-0.07127015 -0.30495107 -0.05616074 0.03396652 0.22835186 -0.10448142
 -0.12324894 0.33271387 -0.07241599 0.13749555]
[-0.07985672 -0.22984645 -0.07458571 -0.05734181 0.2311909 -0.10490579
 -0.03963645 0.36067951 -0.09539621 0.08969861]
[-0.02034161 -0.14845943 -0.05289149 -0.10343055 0.16161321 -0.0373414
 0.00582653 0.23889308 -0.15703507 0.11316621]
[0.13249908 -0.0988423 -0.11128965 -0.0275123 0.07309795 -0.10439363
 0.1285318 0.17272267 -0.17736019 0.01254593]
[0.22068162 -0.07062459 -0.0982592 -0.10799386 0.02805774 -0.12083627
 0.27087367 0.152532 -0.1776115 -0.09681983]
[0.28982469 -0.05228562 -0.03115091 -0.07698361 -0.01296954 -0.16872352
 0.26602218 0.09481608 -0.135526 -0.17302381]
[0.18713553 -0.03002641 0.08230336 -0.02984861 -0.05442746 -0.11142837
 0.12422555 0.0286873 -0.06175624 -0.13486446]
[0.00863385 -0.01626411 0.13956921 -0.00939845 -0.01972339 -0.03944252
 -0.0250301 0.00434509 -0.00620823 -0.03648138]
[-0.00156724 -0.00226641 0.08375813 -0.00366591 -0.01353317 -0.00497213
 -0.04644205 -0.00125778 -0.00497804 -0.00507543]
[-4.57254137e-05 -1.28438014e-05 2.05327687e-03 -4.83000244e-04
 -5.22359216e-04 -1.17824158e-04 -7.33939523e-04 -1.11271820e-05
 -1.12615271e-04 -1.38419127e-05]
[-9.73464284e-06 -2.90627952e-07 -1.55674775e-06 -1.31379173e-04
 -6.24705672e-06 5.07190474e-04 -1.06335465e-05 1.01300102e-05
 -4.82886899e-05 -3.09190043e-04]
[-2.96833241e-05 -2.07296171e-06 -5.86541602e-03 6.66473433e-03
 -1.30567705e-05 -1.55126778e-04 -2.94920164e-06 -1.65473793e-05
 -5.70553239e-04 -9.32921648e-06]
[-0.00179999 0.00085643 -0.00521881 0.00874272 0.00112568 -0.00163912
 -0.00045184 0.00991721 -0.00147649 -0.01005579]
[-0.02816326 0.00026202 0.00891932 0.01830511 0.01239945 -0.00693557
 -0.0232366 0.01914789 -0.00996518 0.00926685]
[-0.01553264 -0.00372185 0.01896488 0.03218316 0.07374669 -0.01676455
 -0.11105088 0.01084101 -0.05256617 0.06390037]
[0.15301183 -0.03981929 0.00688772 -0.04196876 0.14362985 -0.07740989
 -0.03233271 -0.0374576 -0.1369136 0.06237256]
[0.15115295 -0.08168828 0.02561949 -0.12028652 0.21899766 -0.0904512
 0.10913735 -0.03426068 -0.21741156 0.03919074]
[0.22994848 -0.10335849 -0.01354636 -0.21000537 0.33186173 -0.09170745
 0.16315371 -0.10800525 -0.23991969 0.04157845]
[0.18557642 -0.12544034 0.01825997 -0.24599397 0.33717132 0.00470949
 0.15528433 -0.21081398 -0.17003804 0.05128483]
[0.20090592 -0.22386228 0.05788347 -0.23531157 0.28304458 0.13952798
 0.15651408 -0.2588588 -0.09830681 -0.02153714]
[0.22970714 -0.32459792 0.04280026 -0.17786968 0.23822698 0.12575383
 0.28947106 -0.30688307 -0.10309672 -0.01351187]
[0.06755299 -0.23156664 0.02455166 -0.05058765 0.21311638 0.09749509
 0.34478432 -0.42539686 -0.02339383 -0.01655597]
[-0.18649527 0.02435321 0.09280097 0.09554095 0.10354153 0.10123283
 0.129731 -0.49519634 0.19647259 -0.06198183]
[-0.49311218 0.40966406 0.19842753 0.15854685 -0.05314317 -0.03939243
 0.02387791 -0.36971161 0.30334121 -0.13849832]
[-0.61663198 0.58537942 0.09929818 0.12197448 0.06804273 -0.22853604
 0.10763422 -0.20038742 0.21657962 -0.15335342]
[-0.57111973 0.20120621 0.01468095 0.05720433 0.28980845 -0.25314143
 0.08840521 0.02054244 0.07264654 0.0797676]
[-0.41175854 -0.07371596 0.01046303 -0.06326866 0.43356687 -0.18144631
 -0.00970859 0.0419801 -0.01243012 0.26631799]
[-0.16294558 -0.36577448 -0.05333269 -0.0281096 0.36332965 -0.14944835
 -0.09721877 0.33898076 -0.07621378 0.23073289]
[-0.02950433 -0.32336652 -0.0924882 -0.01579975 0.18823279 0.01314184
 -0.09698602 0.40397733 -0.13428245 0.08707497]
[-0.02563201 -0.24615227 -0.04781134 0.09487914 0.1425364 -0.05046045
 -0.00763368 0.35760325 -0.22389524 0.00656594]
[0.07544742 -0.1665435 -0.11366346 0.14496088 0.04929847 -0.05922456
 0.04975767 0.320941 -0.27974722 -0.02122718]
[0.1116488 -0.10991134 -0.09392551 0.10546327 0.01225997 -0.0129734
 0.11343239 0.26787171 -0.25898206 -0.13488364]
[0.19813791 -0.08058089 -0.11181325 0.06573362 0.00790779 -0.03198804
 0.13580611 0.20291711 -0.19950779 -0.1866131]
[0.24470387 -0.05636093 0.00283109 0.02078729 -0.04572216 -0.04451007
 0.15197568 0.07698137 -0.16080672 -0.18987946]
[0.12800948 -0.03348204 0.19162354 -0.00640764 -0.10645907 -0.03465659
 0.09043071 0.00281897 -0.10372864 -0.12814845]
[-0.00037523 -0.01421194 0.21072666 -0.01752617 -0.04588188 -0.02826573
 -0.02935895 -0.01624209 -0.01821155 -0.04065303]
[-0.00242651 -0.00330869 0.08863332 -0.00426876 0.00213949 -0.00754752
 -0.04874293 -0.0025199 -0.00936266 -0.01259585]
[-4.79918701e-04 -3.54786287e-04 9.19059757e-03 -2.65595794e-04
 -3.16064048e-04 -2.89390003e-03 -3.37852072e-03 -9.37839795e-05
 -9.34397976e-04 -4.73628985e-04]
[-2.96171879e-06 -4.47400446e-08 -1.30776536e-08 -1.41880707e-06
 -6.87516695e-06 -7.11152607e-05 -1.57847239e-07 1.01498008e-04
 -5.35501795e-06 -1.35564387e-05]
[-5.91508906e-05 1.11119716e-05 -3.28382477e-03 5.36553422e-03
 -1.59325882e-05 -1.06678024e-04 -2.55043542e-05 -9.65376967e-04
 -4.08084394e-04 -5.12094644e-04]
[-0.00280064 0.00078853 -0.00513038 0.02262662 -0.00199301 -0.00390518
 -0.00090476 0.00192856 -0.00268546 -0.00792427]
[-0.03140871 -0.00197859 0.0575325 0.06417032 -0.02182011 -0.00367166
 -0.03841205 -0.00782455 -0.01065348 -0.00593367]
[0.00878833 -0.00831298 0.11954369 0.11655939 -0.01951322 -0.03683596
 -0.13578418 -0.01188327 -0.06483361 0.03227179]
[0.20579673 -0.05770085 0.16172346 0.03118794 0.03432596 -0.09287013
 -0.05753602 -0.05416809 -0.15153337 -0.01922587]
[0.2000694 -0.12878831 0.17136212 -0.081783 0.14083794 -0.12295616
 0.10841847 -0.04295871 -0.17492095 -0.06928078]
[0.17053679 -0.16138144 0.08170126 -0.15767032 0.26599559 -0.26542419
 0.21234909 -0.04794034 -0.08754554 -0.01062155]
[0.19449455 -0.18746443 0.0473331 -0.26688924 0.29944319 -0.27919841
 0.18583798 -0.15046051 0.05381871 0.10308488]
[0.21653078 -0.19440308 0.10950603 -0.23967566 0.23581673 -0.20623608
 0.20819204 -0.20586507 0.07723784 -0.00110344]
[0.23148371 -0.15599844 0.10264941 -0.24860826 0.07039731 -0.11992337
 0.34888989 -0.30170363 0.03167633 0.04113735]
[0.0328412 -0.11018526 0.15550348 -0.12652455 0.02763934 -0.09513229
 0.40467051 -0.3685329 0.05299247 0.02672816]
[-0.28048748 0.0177101 0.23907802 -0.00597107 0.06148756 -0.07104388
 0.07955501 -0.26562312 0.30059555 -0.0753012]
[-0.54520887 0.42291367 0.26148364 0.08354612 0.08201665 -0.15664351
 0.04475045 -0.18394163 0.19235875 -0.20127504]
[-0.55384833 0.53523308 0.09516352 -0.02270518 0.28879541 -0.25810614
 0.14491139 -0.11856753 0.03100996 -0.14188512]
[-0.43973643 0.04176454 0.01926487 -0.13598658 0.45938638 -0.18946955
 0.08328556 0.06836559 0.04674757 0.04637815]
[-0.27117568 -0.18020982 0.10956831 -0.15920864 0.38470405 -0.14906377
 -0.06747366 0.09020355 0.03984486 0.20281087]
[-0.06948441 -0.40570784 0.10753115 -0.02646847 0.25963172 -0.07254342
 -0.12975968 0.2607154 -0.05470477 0.13079047]
[-0.00313559 -0.33017763 -0.00319308 0.1071544 0.14767511 0.01492616
 0.01758579 0.2230698 -0.20579062 0.03188536]
[0.02441332 -0.23373769 -0.01196223 0.19131289 0.06617583 0.00883752
 0.0717915 0.24408291 -0.28037161 -0.08054265]
[0.09686656 -0.16027384 -0.03132541 0.17969881 0.08354343 0.00494736
 0.0317808 0.17825042 -0.27305317 -0.11043525]
[0.11670461 -0.09977748 0.09226825 0.1949795 0.02503362 -0.00561744
 0.02089471 0.15743801 -0.27681261 -0.2251118]
[0.15882953 -0.07871789 0.09663557 0.17529798 -0.07636579 0.03716782
 0.02943042 0.0603916 -0.21443789 -0.18823157]
[0.14597778 -0.06093739 0.14876027 0.09291925 -0.09990511 0.03371941
 0.05666107 -0.00649362 -0.10469393 -0.20600778]
[0.03832443 -0.03477713 0.26476809 0.01524326 -0.09515025 0.0114425
 0.03490203 -0.01667876 -0.09318493 -0.12488925]
[-0.02251006 -0.01920532 0.31020516 -0.02318094 -0.04684436 -0.03408316
 -0.05618465 -0.02311914 -0.04489499 -0.04018265]
[-0.0083457 -0.00645327 0.12891975 -0.00538054 -0.01784635 -0.01518409
 -0.04808347 -0.00253921 -0.01501175 -0.01007529]
[-0.00061693 -0.00016572 0.01650665 -0.00028999 -0.00077846 -0.00580332
 -0.00784945 -0.0001256 -0.00067659 -0.00020058]
[0. 0. 0. 0. 0. 0. 0. 0. 0. 0.]
[-1.60647851e-05 6.75924239e-05 -1.11870153e-03 1.41031039e-03
 -3.66992731e-06 -6.09450908e-05 -7.54384473e-06 -4.80654489e-05
 -1.55016067e-04 -6.78962460e-05]
[-0.00441984 -0.00028205 0.00130098 0.02726507 -0.00218426 -0.0059779
 -0.00181621 -0.00073031 -0.00270633 -0.01044915]
[-0.03728716 -0.00291301 0.07781617 0.13249357 -0.05911292 -0.00555887
 -0.04633513 -0.01022083 -0.01978759 -0.02909416]
[0.01423116 -0.01733632 0.20483196 0.16881514 -0.05559545 -0.0074268
 -0.16026556 -0.01606838 -0.07701556 -0.05417006]
[0.20075822 -0.10589828 0.26020479 0.05018386 -0.05419578 0.05782944
 -0.11044693 -0.0555905 -0.14547034 -0.09737464]
[0.22193022 -0.19411173 0.19417062 -0.04748966 0.0385533 0.12643141
 0.03904376 -0.13142441 -0.14067912 -0.10642459]
[0.17053869 -0.21674621 0.13395993 -0.10096773 0.15968111 -0.15272908
 0.17210907 -0.19027272 0.03651886 -0.01209208]
[0.14612976 -0.2006297 0.14794165 -0.21141261 0.21760745 -0.29558721
 0.19459711 -0.18770231 0.15072741 0.03832835]
[0.21793039 -0.14529859 0.14878136 -0.37507445 0.14587209 -0.28842065
 0.21993652 -0.19377114 0.23287953 0.03716397]
[0.25376445 -0.02948196 0.19646467 -0.4275116 0.01639614 -0.2908473
 0.39680216 -0.29827493 0.10090996 0.08177841]
[-0.00064825 -0.04270502 0.24492428 -0.35100946 -0.01883949 -0.27378267
 0.39921933 -0.22584823 0.21201503 0.05667503]
[-0.26091504 0.14007948 0.29279619 -0.2603929 0.07011974 -0.3254348
 0.15229595 -0.13381132 0.33506703 -0.00980429]
[-0.48485041 0.38213897 0.24398328 -0.23190616 0.23448364 -0.31295308
 0.08058093 0.00795309 0.18266852 -0.10209892]
[-0.48925346 0.35980317 0.09652229 -0.24890873 0.43383771 -0.22810119
 0.09693758 0.06857397 -0.02240527 -0.06700576]
[-0.31541815 -0.02413903 0.1157235 -0.19002591 0.41561869 -0.12615669
 0.00968504 0.03943142 -0.0495471 0.12482806]
[-0.11236522 -0.23809128 0.08013369 0.00483335 0.30491823 -0.03447259
 -0.0726732 -0.00922445 0.0213588 0.05558278]
[0.02039519 -0.33542305 0.03424323 0.12264285 0.14437583 0.03411814
 0.02467293 0.05891125 -0.10576537 0.00182935]
[-0.00636711 -0.2729421 0.043446 0.09690851 0.07491086 0.12289429
 0.12696978 0.08148476 -0.18672156 -0.08058408]
[0.04337153 -0.18331254 0.01958149 0.18400863 -0.04662856 0.06250394
 0.10443806 0.03949564 -0.11952749 -0.10393095]
[0.05787084 -0.13037696 0.0266331 0.13063985 -0.02331999 0.08861176
 0.04412005 0.02108845 -0.09465166 -0.12061609]
[0.05241884 -0.08642335 0.12010281 0.21161427 -0.03459617 0.03710756
 0.04982069 -0.02820501 -0.1389852 -0.18285507]
[0.11521401 -0.06323989 0.16946286 0.24343109 -0.13204397 0.00114243
 0.05122954 -0.03870698 -0.13567153 -0.21081769]
[0.06203968 -0.05968639 0.21612132 0.13461241 -0.11432506 0.04936054
 0.01490771 -0.05825585 -0.04987732 -0.19489692]
[-0.00122548 -0.03731528 0.34567133 -0.03973403 -0.09329368 0.0484903
 -0.02176687 -0.01918634 -0.05887686 -0.1227633]
[-0.02050437 -0.0244783 0.32488137 -0.03462046 -0.06079553 -0.03553531
 -0.0508636 -0.00808204 -0.06136941 -0.02863244]
[-0.00555585 -0.00604607 0.08361407 -0.00445456 -0.01154055 -0.00760865
 -0.03128728 0.00187156 -0.01332751 -0.00566514]
[0.00349521 -0.00024091 0.00584193 -0.00017857 -0.00378064 -0.0009468
 -0.00324881 -0.00030099 -0.00020611 -0.00043432]
[-9.05791694e-06 -2.43029444e-06 -3.63319941e-06 -1.50569409e-04
 -7.64388184e-04 -1.21561992e-04 -3.75876289e-06 8.83875357e-04
 -4.78463699e-05 2.19370704e-04]
[-2.37830932e-06 1.72111577e-05 -4.15138020e-05 7.45412544e-05
 -2.13317591e-07 -2.34016807e-05 -9.12644225e-07 5.53465679e-06
 -1.54359495e-05 -1.34312377e-05]
[-0.00336681 -0.00032133 -0.00626662 0.02573173 -0.00313067 -0.00427503
 -0.00155577 0.00151017 -0.00235665 -0.00596904]
[-0.05372083 -0.00390729 0.06768111 0.18917874 -0.05478448 -0.00863201
 -0.04663597 -0.00275641 -0.03988522 -0.04653757]
[-0.00289804 -0.0339212 0.25441703 0.2084824 -0.08107381 0.04549459
 -0.15527335 -0.04336565 -0.10776564 -0.08409675]
[0.13882907 -0.14099683 0.32647631 0.15587752 -0.10337875 0.14370137
 -0.17810446 -0.10369588 -0.10258836 -0.13612022]
[0.16573563 -0.25578013 0.22663648 0.06510965 -0.09057927 0.31163737
 -0.03986314 -0.21227287 -0.05755778 -0.11306553]
[0.15143697 -0.24781789 0.25917235 -0.0794628 -0.01401411 0.12218351
 0.1142545 -0.25368947 0.05413226 -0.10619561]
[0.14988813 -0.1349557 0.14997892 -0.13531236 0.04200274 -0.03538189
 0.15802877 -0.25569859 0.14591119 -0.08446178]
[0.21213302 -0.03614278 0.09687361 -0.26779202 0.00069309 -0.1375674
 0.20821232 -0.25005057 0.20663218 -0.03299198]
[0.26063073 -0.0466874 0.19323416 -0.38092279 -0.14626315 -0.17026155
 0.31074622 -0.27521715 0.20060404 0.05413738]
[0.04365598 0.00585838 0.20955397 -0.36848566 -0.11227057 -0.1824764
 0.37900826 -0.1687838 0.19065684 0.00328326]
[-0.23142011 0.13748159 0.29026458 -0.38795447 0.03095803 -0.17182679
 0.34991285 -0.09764855 0.20556182 -0.12532853]
[-0.38913241 0.2284423 0.24857768 -0.3298746 0.16441248 -0.09905563
 0.18804599 0.08807854 0.02801093 -0.12750527]
[-0.36575758 0.17342511 0.14561461 -0.25072733 0.24298668 -0.0405045
 0.07723351 0.0612792 -0.09653963 0.05298967]
[-0.18201944 -0.08524119 0.07731931 -0.01536282 0.22433768 -0.04735455
 0.06440242 -0.06871615 -0.03753214 0.07016698]
[-0.05649348 -0.20649667 0.12642093 0.19507171 0.14376485 0.00108738
 0.11103366 -0.09841609 -0.11411602 -0.10185631]
[-0.00724021 -0.17647597 0.13530807 0.20624743 -0.0756044 0.0716467
 0.16810818 -0.07653747 -0.1483565 -0.09709636]
[0.0040656 -0.14280793 0.08697043 0.20782405 -0.10009427 0.01539698
 0.17918195 -0.07648243 -0.05521454 -0.11883987]
[0.01051204 -0.1174776 0.08631285 0.17725348 -0.14184195 0.0586453
 0.082946 -0.06701978 -0.01843229 -0.07089821]
[-0.01747952 -0.07814198 0.0729406 0.1480336 -0.09914795 0.09702435
 0.06545775 -0.10869132 -0.00185423 -0.07814174]
[0.02899003 -0.06354067 0.13387069 0.26357687 -0.12389006 0.04993523
 0.10312653 -0.15188675 -0.08769011 -0.15249158]
[0.07684422 -0.06678899 0.19886898 0.24459554 -0.19497438 0.04914532
 0.06516594 -0.12568931 -0.04906464 -0.19810316]
[0.02520683 -0.05873758 0.32005075 0.08295709 -0.12519349 0.08350228
 -0.00533853 -0.12213087 -0.02385418 -0.17646272]
[-0.02220445 -0.02920775 0.38882279 -0.06983221 -0.07877181 0.07973719
 -0.04868848 -0.07381332 -0.05045032 -0.09559163]
[-0.0156535 -0.00358509 0.23184037 -0.03093799 -0.04840812 -0.02038989
 -0.02910973 -0.01371188 -0.05095248 -0.0190919]
[-0.00284181 -0.00030066 0.03349003 -0.00542147 -0.00304767 -0.00486085
 -0.01236908 0.0027001 -0.00620468 -0.00114394]
[-1.59747805e-03 -6.59574607e-06 9.51708015e-03 -8.83858665e-05
 -1.67957423e-05 -2.00251653e-03 -5.52691473e-03 -7.85695556e-06
 -1.44359699e-04 -1.26176383e-04]
[-1.10293854e-08 1.61115822e-05 -8.30425688e-06 -2.40825966e-06
 -2.58007375e-08 -6.33395700e-08 -1.86583833e-07 -2.52605133e-07
 -4.60252386e-06 -2.57167983e-07]
[1.49658741e-03 7.50581530e-05 -3.70756577e-04 -9.15882902e-06
 -8.37507658e-04 -1.11878740e-04 -2.57251988e-04 3.08697601e-03
 -3.06313450e-04 -2.76575354e-03]
[-0.00185303 -0.00071808 -0.00428681 0.02929265 -0.004167 -0.00445312
 -0.00234918 0.0006893 -0.00546707 -0.00668765]
[-0.04541079 -0.00642537 0.03037683 0.21281578 -0.02806787 -0.00612705
 -0.04725167 -0.0102963 -0.05775611 -0.04185735]
[-0.0182039 -0.04639689 0.21039855 0.24479453 -0.08454027 0.06168167
 -0.13336538 -0.04838086 -0.10332895 -0.08265861]
[0.10070357 -0.16104378 0.22957423 0.24490649 -0.10995974 0.16012165
 -0.19255693 -0.13014977 -0.02915391 -0.11244226]
[0.16000177 -0.19162421 0.21929222 0.15911847 -0.16738643 0.26469749
 -0.11481164 -0.21211395 0.02720135 -0.14437547]
[0.14258453 -0.13961074 0.2753185 0.04194721 -0.20524246 0.17116584
 0.04498535 -0.27037552 0.10332938 -0.16410266]
[0.15267757 -0.06165192 0.19119869 0.00329997 -0.24404255 0.1911011
 0.08913859 -0.26489019 0.13999246 -0.19682351]
[0.18652514 0.00552748 0.18443447 -0.05393479 -0.28380573 0.10368236
 0.17265114 -0.26197308 0.16740699 -0.22051431]
[0.27795586 -0.03333523 0.22505969 -0.17404139 -0.31063017 0.02497377
 0.31413788 -0.2359159 0.12552126 -0.2137253]
[0.20168974 0.0144957 0.26581791 -0.25072998 -0.25618148 0.01640246
 0.44368893 -0.16120009 -0.01698194 -0.25700164]
[0.02973663 0.04337311 0.26510972 -0.28379229 -0.25017849 0.06089994
 0.38778317 -0.0322764 0.01986005 -0.24051644]
[-0.13262342 0.15157652 0.24715285 -0.21128356 -0.10215198 0.04772402
 0.2048064 0.0571744 -0.0911473 -0.17122802]
[-0.1427712 0.03358663 0.14051159 -0.08713862 0.04681268 0.01040093
 0.17158167 0.06867087 -0.12617588 -0.11547884]
[-0.08521589 -0.0512081 0.1107396 0.02316835 0.03465606 0.02207647
 0.18609902 -0.08988257 -0.02730712 -0.12312629]
[-0.03731827 -0.02582317 0.1111026 0.14297354 -0.02073151 0.02641167
 0.1795866 -0.18106914 -0.08988231 -0.10525036]
[0.01479722 -0.0527801 0.1365675 0.2360591 -0.1124793 -0.00433715
 0.17133999 -0.21183702 -0.06252055 -0.11480992]
[-0.00995912 -0.01870219 0.0789834 0.2373722 -0.14108092 0.03854114
 0.14856842 -0.23008558 0.01394949 -0.11758681]
[-0.04030868 -0.02251042 0.05423026 0.19780089 -0.18384981 0.03979647
 0.1324975 -0.18217598 0.04504971 -0.04052998]
[-0.00615675 -0.03099742 0.09194631 0.16617948 -0.14489348 0.08114146
 0.12119079 -0.26519543 0.04576382 -0.05897859]
[0.02676385 -0.03395819 0.17140399 0.23413987 -0.12656586 0.05925578
 0.11144743 -0.27250481 -0.02111404 -0.14886852]
[0.05184827 -0.04970093 0.26055604 0.13400269 -0.19512634 0.08396848
 0.032029 -0.19915128 0.03036623 -0.14879207]
[-0.00791239 -0.04205356 0.31036967 0.02752218 -0.11268482 0.10056802
 -0.05611684 -0.12674414 0.02054867 -0.11349633]
[-0.01815381 -0.01314678 0.27931115 -0.06147508 -0.06425751 0.07388362
 -0.06389158 -0.04126975 -0.04341601 -0.04758384]
[-0.01366037 0.00512266 0.17650659 -0.02737784 -0.02652106 -0.00462893
 -0.04967259 -0.00863723 -0.04254505 -0.00858613]
[-0.00218043 -0.00025843 0.04592279 -0.00433271 -0.00128466 -0.00612207
 -0.01984624 -0.00192246 -0.0065313 -0.00344449]
[-4.76941234e-04 1.08992899e-05 4.92583495e-03 -5.39500907e-05
 -6.99734812e-07 -5.62566507e-04 -3.77807510e-03 -6.35876461e-07
 -6.25767352e-05 -1.28860415e-06]
[0. 0. 0. 0. 0. 0. 0. 0. 0. 0.]
[3.76195624e-03 -3.72812283e-05 -8.70851334e-04 1.65363759e-04
 -5.58754655e-05 -2.29115161e-04 -6.44717307e-04 -5.33978346e-05
 -6.96811534e-04 -1.33927003e-03]
[-0.00170987 -0.00267487 0.00322309 0.02832321 -0.00246745 -0.00365385
 -0.00294312 -0.00422716 -0.0074829 -0.00638708]
[-0.03811269 -0.01115836 0.03731112 0.19658537 -0.02484996 -0.0021272
 -0.03422482 -0.02283259 -0.06239861 -0.03819215]
[-0.021791 -0.03434455 0.17758961 0.25485879 -0.07425273 0.02653986
 -0.11324154 -0.06742632 -0.08725987 -0.06067254]
[0.09649607 -0.10107516 0.18828268 0.22517167 -0.13372451 0.16420825
 -0.18662469 -0.12695715 -0.05099597 -0.07478185]
[0.14433856 -0.06052839 0.21718454 0.21576294 -0.20524508 0.17426915
 -0.18966748 -0.21417284 0.06990258 -0.1518445]
[0.11107714 -0.02788036 0.31532049 0.15353753 -0.29553843 0.08465372
 -0.05466189 -0.26162931 0.21294211 -0.23782152]
[0.12265834 0.04644592 0.23797053 0.16165334 -0.36720341 0.18411645
 0.01022898 -0.25053665 0.1071694 -0.25250342]
[1.83008105e-01 5.96133359e-02 2.05781654e-01 1.28997043e-01
 -3.63711476e-01 1.99058861e-01 1.59281403e-01 -2.51133323e-01
 3.26361042e-04 -3.21222693e-01]
[0.28792289 0.05891203 0.18314348 -0.04473333 -0.34766334 0.10859955
 0.30359632 -0.20485862 0.03406375 -0.37898281]
[0.3130368 0.06059242 0.23072247 -0.14466475 -0.25765097 0.15630899
 0.31850371 -0.16146171 -0.11920924 -0.39617723]
[0.19199611 0.01435079 0.13196979 -0.21781969 -0.23144728 0.10845042
 0.38488618 -0.00655152 -0.01357743 -0.36225748]
[0.06518029 0.00598111 0.05766131 -0.12302372 -0.22882544 0.04177343
 0.35455984 0.00900097 -0.01842727 -0.16388066]
[0.00365254 -0.0045481 0.02248222 0.00603846 -0.09462278 -0.05447403
 0.39702502 0.01337397 -0.09348273 -0.19544439]
[0.01326215 -0.04011918 0.03516762 0.01205458 -0.04084659 -0.02403752
 0.31050509 -0.11832782 0.02599761 -0.1736564]
[-0.02798446 0.071498 0.03478808 0.10159316 -0.01559919 0.05716236
 0.22608258 -0.19827831 -0.13037269 -0.1188896]
[-0.03496887 0.11379573 0.03538965 0.1445694 -0.047541 0.08437006
 0.16204272 -0.2662898 -0.0739116 -0.11745717]
[-0.0763296 0.09893404 0.10175259 0.19544794 -0.08946975 0.0836577
 0.19105807 -0.32229555 -0.00140833 -0.18134716]
[-0.06790213 0.04424077 0.14721468 0.16731061 -0.15169516 0.08712912
 0.12428637 -0.2862134 0.01366938 -0.07804059]
[-0.04229168 0.00237129 0.13918592 0.21576101 -0.08893523 0.04411875
 0.10012822 -0.34777004 0.06547438 -0.08804266]
[0.01009793 -0.0287664 0.21055754 0.13215145 -0.06339872 0.0816371
 0.02326507 -0.29112327 0.06410415 -0.13852556]
[-0.00152048 -0.04334182 0.24240628 0.01145977 -0.11136572 0.18655209
 -0.05334794 -0.20197579 0.07416919 -0.10303571]
[-0.03601879 -0.03477485 0.26208803 -0.03031402 -0.07707988 0.1136995
 -0.05430354 -0.10036233 0.01780462 -0.06073871]
[-0.02101584 -0.02031324 0.23160182 -0.05597136 -0.03810996 0.04221274
 -0.04624104 -0.02805289 -0.05532787 -0.00878223]
[-0.00967913 -0.00267736 0.09578615 -0.01938961 -0.0233016 0.01308837
 -0.02252175 -0.00629553 -0.02930265 0.00429311]
[-0.00055848 -0.00044684 0.02061168 -0.00202347 -0.00033676 -0.00156725
 -0.00539566 -0.00125914 -0.00644891 -0.00257518]
[-6.60030480e-07 5.38545537e-05 -3.03740944e-05 -4.50002244e-06
 -3.42577027e-06 2.96549570e-05 -1.36097742e-06 -9.51102209e-07
 -4.06426734e-05 -1.59484944e-06]
[-3.83615415e-08 2.89477557e-05 -1.08668901e-05 -4.62006392e-06
 -3.76903955e-07 -4.31493504e-07 -6.67228505e-07 -2.63656329e-06
 -8.67682502e-06 -6.33137404e-07]
[-2.59004937e-05 -6.71988437e-06 -1.11124449e-04 5.64859598e-04
 -2.12067721e-06 -1.40791191e-04 -1.60210875e-05 -2.92370460e-05
 -6.00231360e-05 -1.72922373e-04]
[-0.00366458 -0.00460196 0.00807547 0.03186965 -0.0008653 -0.00587937
 -0.00177357 -0.01007729 -0.00758312 -0.00549995]
[-0.02664741 -0.00766844 0.03826747 0.1276623 -0.01783406 0.00410751
 -0.01641821 -0.02971106 -0.04442734 -0.02733064]
[-0.04079154 0.01026859 0.10316668 0.19035301 -0.04511537 0.04861674
 -0.08124554 -0.05890127 -0.07630388 -0.05004714]
[0.04867475 0.079071 0.11636885 0.17099163 -0.09090986 0.04714663
 -0.15106824 -0.1004451 -0.05133579 -0.06849398]
[0.09424239 0.09826006 0.14389074 0.17425598 -0.18895504 0.10096231
 -0.21343371 -0.15332048 0.07885517 -0.1347575]
[0.08610546 0.08631992 0.17683199 0.15464039 -0.24814706 0.12827748
 -0.14218514 -0.19316714 0.1603062 -0.20898262]
[0.07288411 0.12261783 0.16453971 0.12243368 -0.23734537 0.13112047
 -0.03292569 -0.1760931 0.04608588 -0.21331787]
[0.12097339 0.08502249 0.21783908 0.02286363 -0.23825702 0.1160982
 0.05666879 -0.20931111 0.03837126 -0.21026915]
[0.21877109 0.05440603 0.1590509 -0.02965296 -0.23125477 0.06963931
 0.18834542 -0.15315734 -0.01746726 -0.25868043]
[0.28944904 -0.07371031 0.11747888 -0.11084932 -0.15393536 0.11094403
 0.26460618 -0.09382802 -0.05016006 -0.29999518]
[0.2093689 -0.13416767 0.04037108 -0.09690336 -0.14397223 0.08093312
 0.3673268 -0.04129964 -0.03760841 -0.24404918]
[0.09323636 -0.13789183 0.0376841 -0.05840772 -0.16938537 0.03161395
 0.43482795 -0.07715319 0.04513276 -0.19965674]
[0.03820258 -0.03524177 -0.00341308 -0.03127562 -0.08896023 0.01782827
 0.41031238 -0.09153418 -0.00835519 -0.20756374]
[0.00595187 0.01128954 -0.04319215 0.01877598 -0.00205419 0.06200972
 0.28791538 -0.10734764 -0.04323913 -0.19010977]
[-0.02586794 0.0702363 0.04254541 0.06159362 -0.03392139 0.05530808
 0.20075724 -0.12643065 -0.10782981 -0.13639089]
[-0.08084482 0.13335064 0.0955793 0.07636395 -0.01353681 0.09323461
 0.19738017 -0.22846346 -0.08075769 -0.192306]
[-0.08955188 0.13192676 0.16394891 0.17134599 -0.03642966 0.03800594
 0.12198325 -0.25823101 -0.01288068 -0.23011766]
[-0.11093068 0.05805225 0.19694957 0.19677475 -0.02471635 0.04580369
 0.06221748 -0.28352708 0.0060447 -0.14666808]
[-0.0630899 0.02679523 0.11237789 0.11830679 -0.00218554 0.10844518
 0.00762182 -0.29461053 0.07265307 -0.08631434]
[-0.04065593 -0.00857176 0.18738115 -0.01009441 -0.0043576 0.17533308
 -0.03714832 -0.24484068 0.04669802 -0.06374331]
[-0.03636277 -0.06259415 0.25133067 -0.0642962 -0.04762653 0.17495058
 -0.03946947 -0.16746838 0.03588309 -0.04434714]
[-0.02334048 -0.04761916 0.27293277 -0.0822176 -0.03066326 0.09423281
 -0.04214317 -0.09241158 -0.03950577 -0.00926455]
[-0.01533272 -0.01140358 0.17533727 -0.04998524 -0.02600478 0.02872981
 -0.02572455 -0.02714209 -0.06315146 0.01467741]
[-0.00455632 -0.00480238 0.0587623 -0.01199929 -0.01963942 0.01988506
 -0.01323381 -0.00614781 -0.02019852 0.00193017]
[0.00148548 -0.00180143 0.0081137 -0.00223283 -0.00023542 0.00025252
 -0.00108862 -0.00034382 -0.00224664 -0.00190294]
[1.18816422e-06 -5.26380859e-13 -1.77361414e-07 -4.49833593e-08
 -1.48727641e-10 -2.06176253e-07 -4.45744597e-08 -2.54337468e-10
 -7.12973474e-07 -1.64447933e-09]
[-3.71627458e-08 2.80431395e-05 -1.05273002e-05 -4.47568709e-06
 -3.65125686e-07 -4.18009336e-07 -6.46377600e-07 -2.55417058e-06
 -8.40567463e-06 -6.13351858e-07]
[-1.09429516e-06 7.95996220e-06 -4.57295391e-06 1.70044386e-05
 -2.13491106e-07 -5.03997580e-06 -2.21465569e-07 -2.51209121e-06
 -4.53021630e-06 -6.77984508e-06]
[-0.00215012 -0.00453028 0.00359092 0.03187413 -0.00060361 -0.00436187
 -0.00084296 -0.00951245 -0.0065501 -0.00691368]
[-0.02060859 -0.00615917 0.02310015 0.09094754 -0.01291131 -0.00092222
 -0.00566034 -0.02340901 -0.02713585 -0.01724114]
[-0.06694727 0.04129476 0.05311233 0.13527344 -0.02745017 0.05099219
 -0.03637657 -0.03416108 -0.07714267 -0.03859489]
[-0.01134645 0.19473755 0.06081754 0.14337231 -0.05961356 -0.0163701
 -0.08658186 -0.01965795 -0.11990929 -0.08544837]
[0.04948764 0.19763361 0.10208925 0.13141535 -0.1092258 -0.04041281
 -0.16430134 -0.04003829 -0.00458602 -0.12206174]
[0.10323699 0.14422531 0.13494176 0.09153359 -0.15500614 0.00447925
 -0.19920641 -0.00448644 0.06094319 -0.18066169]
[0.14124247 0.11272275 0.19696058 -0.00359645 -0.16451168 0.05798772
 -0.18850182 -0.04332158 0.02307162 -0.132054]
[0.14657709 0.08213001 0.20504327 0.00887479 -0.15656056 0.07726651
 -0.12585129 -0.10105922 -0.02795342 -0.10846764]
[0.17727041 -0.04452799 0.11420964 0.0410622 -0.1201412 -0.00430575
 -0.04888731 -0.06245076 0.03393925 -0.08616912]
[0.22625685 -0.21202506 0.09863109 0.01316439 -0.09928928 0.05485496
 -0.00458793 -0.11164899 0.11839324 -0.0837492]
[0.20625365 -0.29235464 0.03172558 -0.05045941 -0.10244953 0.13728684
 0.08003231 -0.11048186 0.15515846 -0.0547118]
[0.22392914 -0.25287047 -0.05557887 -0.0469137 -0.08408836 0.18398765
 0.10036708 -0.14072403 0.19843993 -0.12654836]
[0.13440239 -0.07899553 -0.1058919 -0.05750348 -0.057678 0.09663537
 0.05200372 -0.06373408 0.18533756 -0.10457624]
[0.08849319 0.04812109 -0.12943906 -0.01590063 -0.01336594 0.05941224
 0.0722333 -0.01710051 0.07857315 -0.17102721]
[0.02145789 0.10917471 -0.0597579 0.03354495 -0.00762032 0.10247611
 0.04021122 -0.06595219 -0.01238518 -0.16114922]
[-0.0220527 0.17936665 0.00804522 0.07951381 0.03774598 0.08489001
 -0.02412218 -0.15113719 0.01611757 -0.20836753]
[-0.07572838 0.13460118 0.13526337 0.12085186 0.07022696 0.0684533
 -0.06505565 -0.20188805 0.02612861 -0.2128534]
[-0.09867533 0.03906548 0.20723878 0.11521924 0.12294844 0.10553075
 -0.06670231 -0.21371014 -0.02295593 -0.18795922]
[-0.10347385 -0.00792928 0.22802311 0.02296975 0.09617084 0.11901754
 -0.06042179 -0.24095544 -0.01430393 -0.03909687]
[-0.07209131 -0.04995019 0.22623351 -0.06566064 0.08923079 0.08269425
 -0.04834724 -0.20164928 0.03414755 0.00539247]
[-0.02881148 -0.05995931 0.21979202 -0.04666713 0.00442874 0.0832568
 -0.05692444 -0.12040359 -0.03772019 0.04300858]
[-0.0092876 -0.03186142 0.14241512 -0.04328747 -0.02839911 0.05726003
 -0.03767695 -0.07825223 -0.02604876 0.05513859]
[-0.00782003 -0.01032897 0.08261135 -0.03186649 -0.01208213 0.034081
 -0.01888844 -0.02140536 -0.03183849 0.01753758]
[-0.00184449 -0.00204294 0.02085021 -0.00843191 -0.00890803 0.02037559
 -0.00648551 -0.00851581 -0.00731959 0.00232249]
[0.00014723 0.00072658 -0.00286679 -0.00021871 0.00025385 0.00369822
 -0.00020039 -0.00015592 -0.00074609 -0.00063798]
[2.19353387e-06 -9.71780057e-13 -3.27436453e-07 -8.30462028e-08
 -2.74574113e-10 -3.80633082e-07 -8.22913080e-08 -4.69546124e-10
 -1.31625870e-06 -3.03596170e-09]
[0. 0. 0. 0. 0. 0. 0. 0. 0. 0.]
[0. 0. 0. 0. 0. 0. 0. 0. 0. 0.]
[-0.00059422 -0.00023833 -0.00095759 0.01742008 -0.00018907 -0.00110032
 -0.00013601 -0.0073951 -0.00253258 -0.00427687]
[-0.00791797 -0.00866804 -0.00821198 0.0650235 -0.00365703 0.00241081
 -0.00140604 -0.01480783 -0.0153905 -0.00737493]
[-0.04401158 0.02113724 -0.02010333 0.12039378 -0.01142922 0.03010827
 -0.00836544 0.02235353 -0.07624865 -0.03383448]
[-0.05081068 0.14611131 -0.04227766 0.17047557 -0.0310735 0.02150004
 -0.02587016 0.06652603 -0.20011799 -0.05446292]
[-0.01683359 0.1867398 -0.05035708 0.18961471 -0.0476258 -0.03083467
 -0.0607646 0.12264659 -0.20926173 -0.0833237]
[0.04559734 0.11687636 -0.04121564 0.18094851 -0.07509537 -0.04876659
 -0.1177734 0.16671529 -0.12381052 -0.10347628]
[0.09209518 0.03565305 -0.00043126 0.06353202 -0.06959695 0.04404359
 -0.17292 0.00959058 0.03135204 -0.03331821]
[0.15633598 -0.01215585 0.04504503 0.05143523 -0.05160975 0.09344473
 -0.22122347 -0.00856154 0.00225931 -0.05497013]
[2.08998144e-01 -9.58694220e-02 8.37679673e-03 4.90667522e-02
 -5.29836379e-02 1.26448870e-01 -2.61676639e-01 -2.01706495e-03
 1.96431093e-02 1.25294900e-05]
[0.24707387 -0.15755747 0.03460965 0.0764831 -0.04014261 0.0883883
 -0.25201878 -0.07235117 0.0991973 -0.02368281]
[0.25240317 -0.12872119 -0.01714204 -0.02857694 -0.07832561 0.12552124
 -0.19643368 -0.09856487 0.22087608 -0.05103607]
[0.22099498 -0.15555769 -0.1038233 0.00396934 -0.04843263 0.06621184
 -0.1606832 -0.06775916 0.34422967 -0.09914985]
[0.17734995 -0.09810758 -0.12057148 -0.05968391 0.00249445 0.07448674
 -0.14874791 0.01796052 0.2652044 -0.11038528]
[0.08686154 0.04771283 -0.10475803 -0.03488436 0.00746002 0.05323252
 -0.14142378 0.05064212 0.21899883 -0.18384193]
[-0.02826448 0.10143524 -0.06793018 -0.05515449 0.05599708 0.09162591
 -0.15370026 -0.01406523 0.23328713 -0.16323045]
[-0.0640371 0.13262145 -0.01728431 0.05849714 0.0677609 0.03933262
 -0.13355714 -0.06313997 0.11220652 -0.13240081]
[-0.14487955 0.03086725 0.11172918 0.09109571 0.16965196 -0.01357633
 -0.08585543 -0.12169491 0.07861909 -0.1159573]
[-0.15258403 -0.01189604 0.16072838 -0.0153817 0.15561499 0.04020919
 -0.07011726 -0.15728089 0.07030518 -0.01959804]
[-0.12534909 -0.03739618 0.12658399 -0.0497513 0.1461774 0.04821472
 -0.05879134 -0.17146005 0.06833246 0.0534394]
[-0.06921636 -0.05224086 0.13741572 -0.05230994 0.09379006 0.00913664
 -0.05271517 -0.15418121 0.01453401 0.12578715]
[-0.02839355 -0.03872108 0.11441848 -0.0520045 0.00171909 0.01654985
 -0.03237984 -0.09584951 -0.01533937 0.13000064]
[-0.01198646 -0.02709809 0.05954823 -0.02823438 -0.01785376 0.03378148
 -0.0210501 -0.07238372 0.00333863 0.0819383]
[-0.00590938 -0.00764284 0.03610978 -0.00917383 -0.00957182 0.02693165
 -0.01217534 -0.02393837 -0.0146598 0.02002996]
[-0.00094012 -0.00049728 0.00996127 -0.0033454 -0.00123352 0.01311807
 -0.00347393 -0.0093521 -0.00412526 -0.00011173]
[-5.23613789e-06 2.83307466e-03 -2.55811517e-03 5.01014292e-04
 2.85381771e-04 2.15740758e-03 -5.44135582e-05 -6.92500980e-05
 -2.51131994e-03 -5.78543521e-04]
[0. 0. 0. 0. 0. 0. 0. 0. 0. 0.]
[0. 0. 0. 0. 0. 0. 0. 0. 0. 0.]
[0. 0. 0. 0. 0. 0. 0. 0. 0. 0.]
[-6.84669358e-04 -1.12732050e-05 -6.20643084e-04 5.75034181e-03
 -9.19407466e-06 -4.11992107e-04 -4.96201028e-06 -3.30933696e-03
 -9.61420592e-05 -6.02129323e-04]
[-1.33740762e-03 -6.17343141e-03 -1.87439229e-02 3.23753282e-02
 -2.77740328e-04 7.60158175e-04 -9.14493867e-05 6.72436040e-03
 -8.82760249e-03 -4.40830272e-03]
[-0.00964115 -0.00855817 -0.04078337 0.07057496 -0.00636682 -0.00404441
 -0.00153137 0.05683082 -0.05869373 0.00221335]
[-0.02365967 0.02090404 -0.08547421 0.11205824 -0.01692429 -0.00677956
 -0.00831016 0.13590519 -0.1409456 0.01322607]
[-0.03329235 0.02748172 -0.14020146 0.1978047 -0.03676444 -0.00889121
 -0.01678727 0.19507425 -0.20355448 0.01913072]
[-0.06042418 -0.02599864 -0.164978 0.24430956 -0.04574313 0.01364933
 -0.03487963 0.2217523 -0.18940723 0.04171955]
[-0.05282968 -0.09180638 -0.14470522 0.22066619 -0.0471693 0.03257519
 -0.0702953 0.17232056 -0.07811698 0.05936087]
[-0.03852818 -0.14163569 -0.1344049 0.22468133 -0.03497816 0.12851451
 -0.1074184 0.11634723 -0.03978692 0.02720872]
[-0.02395102 -0.20024659 -0.15452144 0.26301336 -0.04056304 0.1058838
 -0.14229867 0.13948061 0.00855929 0.04464375]
[-0.01403579 -0.22263245 -0.11368251 0.24696586 -0.02646651 0.13381194
 -0.18432219 0.10665354 0.08605046 -0.01234236]
[0.0376367 -0.22350645 -0.05137109 0.19188665 -0.10676552 0.16080076
 -0.17926246 0.11541352 0.11558037 -0.06041226]
[0.03575364 -0.24608338 -0.04838681 0.19565666 -0.10824426 0.20015062
 -0.18228753 0.15219754 0.10613385 -0.1048906]
[-0.00667442 -0.20851356 -0.00457294 0.15367842 -0.05461709 0.17669408
 -0.1729909 0.12132372 0.11425161 -0.1185789]
[-0.06981377 -0.15108648 -0.04359004 0.09854182 -0.05518866 0.12793569
 -0.15876351 0.1155422 0.19209057 -0.05566755]
[-0.1050874 -0.14521311 -0.05835578 0.10176566 -0.02539083 0.07862654
 -0.12427478 0.06602137 0.21988992 -0.00798161]
[-0.12369607 -0.04865923 -0.02314257 0.04516814 -0.04828512 0.08103692
 -0.09342007 0.04045025 0.08676954 0.08377793]
[-1.34301782e-01 -1.75976958e-02 -8.36285762e-05 -7.42004588e-02
 4.36044857e-02 5.99869564e-02 -7.03796744e-02 -3.42161953e-02
 1.41396359e-01 8.57913196e-02]
[-0.10819634 -0.01225106 -0.05594493 -0.0781877 0.07138237 0.00992296
 -0.05692269 -0.05888736 0.15189698 0.13718808]
[-0.08693462 -0.0107476 -0.04538886 -0.04621346 0.05218557 -0.00929089
 -0.0381496 -0.08145822 0.04878883 0.21720915]
[-0.05601427 -0.00676202 -0.00031756 -0.02847355 0.02043559 -0.00366019
 -0.02771414 -0.09047237 -0.01400421 0.20698273]
[-0.02208141 -0.0119356 0.00559528 -0.02027031 -0.00708772 0.0265979
 -0.01561956 -0.06680957 -0.02378161 0.13539261]
[-0.00672872 -0.00614249 0.01241652 -0.01028164 -0.01249092 0.02521339
 -0.0079442 -0.06230596 -0.01103627 0.07930037]
[-1.36218581e-03 -2.22506537e-03 3.75088379e-02 -6.86160428e-03
 -1.01092942e-02 1.84766240e-02 -1.95427961e-03 -2.35035270e-02
 -9.96913482e-03 -3.77360266e-07]
[-0.0001661 0.00027741 0.02314042 -0.00190363 0.00041503 -0.00127331
 -0.00036982 -0.01090628 -0.00333076 -0.00588295]
[-1.16475839e-07 1.35921902e-04 3.37034930e-03 -2.72410216e-06
 -3.14031822e-05 -2.50498852e-05 -9.12879477e-06 -7.32800572e-07
 -4.62599157e-04 -2.97451718e-03]
[0. 0. 0. 0. 0. 0. 0. 0. 0. 0.]
[0. 0. 0. 0. 0. 0. 0. 0. 0. 0.]
[0. 0. 0. 0. 0. 0. 0. 0. 0. 0.]
[-4.24960817e-05 -4.01205597e-07 -2.39669971e-05 6.11697149e-04
 -4.72089268e-05 -3.47867876e-06 -3.13094301e-06 -1.15292904e-03
 -5.02952826e-05 7.12209963e-04]
[-1.21996149e-04 -5.96640457e-04 -5.93276462e-03 2.38905312e-03
 -1.01409176e-04 2.36617145e-03 -5.43326569e-05 8.04693159e-03
 -2.66965618e-03 -3.32535687e-03]
[-0.00164863 -0.00841709 -0.01803116 0.0114229 -0.0017223 0.00310268
 -0.00066149 0.04061701 -0.03168589 0.00702398]
[-0.00559039 -0.0177358 -0.0330682 0.03286079 -0.01836974 -0.01185334
 -0.0016255 0.06105828 -0.0643854 0.05870929]
[-0.01946612 -0.0272482 -0.05182049 0.07125319 -0.0474695 -0.01640656
 -0.00479901 0.10295602 -0.07810298 0.07110365]
[-0.03647619 -0.04528949 -0.08797057 0.11784078 -0.07735476 -0.01294136
 -0.00835397 0.15820089 -0.10496439 0.09730927]
[-0.06221076 -0.05739288 -0.13323237 0.19128947 -0.13166086 -0.00138177
 -0.02049715 0.22117351 -0.14501205 0.13892484]
[-0.09985495 -0.09380233 -0.13642865 0.2351398 -0.14785454 0.04043768
 -0.02946986 0.22472516 -0.15604861 0.16315624]
[-0.13664547 -0.15961458 -0.12365324 0.27104947 -0.12926021 0.05765788
 -0.03402505 0.19933601 -0.10173235 0.15688764]
[-0.14952856 -0.1578546 -0.12118554 0.27524337 -0.19097973 0.1093819
 -0.03910129 0.28428677 -0.09893486 0.08867257]
[-0.17925064 -0.13748829 -0.10234675 0.28617832 -0.26156723 0.12240162
 -0.04172569 0.27954987 -0.11103079 0.14528024]
[-0.16513091 -0.15912591 -0.08370056 0.24376275 -0.20239525 0.12803918
 -0.05383826 0.23735227 -0.08088993 0.13592626]
[-0.14785644 -0.15630601 -0.0569472 0.16583882 -0.18703106 0.06663152
 -0.0529515 0.22804074 -0.00108464 0.1416655]
[-0.14009392 -0.14302298 -0.03884808 0.08201321 -0.21115845 0.0919587
 -0.05037385 0.24368821 0.05892767 0.10690969]
[-0.12109715 -0.10718916 -0.03981855 0.05384466 -0.24208871 0.08872747
 -0.04191134 0.17630498 0.06259403 0.17063367]
[-0.11774595 -0.058283 -0.05072199 0.01169518 -0.23557277 0.07646883
 -0.03244466 0.14945218 0.05370666 0.20344505]
[-0.09235664 -0.02434328 -0.07218706 -0.01098921 -0.16688009 0.01729466
 -0.02641481 0.11553636 0.02558837 0.23475198]
[-5.73188290e-02 -1.64379533e-02 -8.16251338e-02 4.85585351e-03
 -1.33977324e-01 2.04153301e-04 -2.04132162e-02 3.09166666e-02
 5.52298175e-03 2.68272638e-01]
[-0.04420499 -0.00743754 -0.05395325 -0.01709759 -0.08074193 0.00382589
 -0.01130762 -0.03617658 -0.00637263 0.25346634]
[-0.03031849 -0.00253577 -0.03996656 -0.0235265 -0.05514562 0.02290244
 -0.00565504 -0.03531168 -0.0152562 0.18481354]
[-0.01122311 -0.00155211 -0.02804264 -0.010329 -0.03047977 0.03661355
 -0.00304334 -0.01868158 -0.01191078 0.07864875]
[-0.00283081 -0.00033597 -0.01371997 -0.00217324 -0.01570235 0.02910289
 -0.00223915 -0.0195434 -0.00413824 0.03158026]
[-8.18373112e-04 -6.63974242e-06 -2.72576557e-03 -9.84075741e-05
 -8.20470881e-03 1.75834149e-02 -3.14973673e-04 -1.76094950e-03
 -2.05741520e-03 -1.59618212e-03]
[-1.59376907e-06 -1.03105026e-06 2.98367068e-03 -1.07404383e-04
 -6.35147444e-04 -7.07731715e-06 -1.11018689e-05 -4.71841166e-04
 -5.29641053e-04 -1.21883268e-03]
[-1.14402283e-07 -1.08171628e-06 3.57770780e-03 -1.64219659e-06
 -3.33073149e-05 -1.17803074e-06 -8.52712765e-06 -6.20172784e-07
 -3.74938099e-04 -3.15629877e-03]
[0. 0. 0. 0. 0. 0. 0. 0. 0. 0.]
[0. 0. 0. 0. 0. 0. 0. 0. 0. 0.]
[0. 0. 0. 0. 0. 0. 0. 0. 0. 0.]
[0. 0. 0. 0. 0. 0. 0. 0. 0. 0.]
[0. 0. 0. 0. 0. 0. 0. 0. 0. 0.]
[-1.70768879e-04 -4.55564907e-04 -8.04048846e-04 5.21347938e-05
 -3.38745012e-04 -1.20997406e-03 -1.30341024e-04 -3.62786860e-03
 -5.17335813e-03 1.18585322e-02]
[-0.00111502 -0.00117558 -0.00246041 0.00346776 -0.0032033 -0.00328382
 -0.00035485 -0.0101345 -0.01049515 0.02875487]
[-0.00433699 -0.00302798 -0.00586241 0.00575137 -0.01873867 -0.00834495
 -0.00133013 0.00365203 -0.01636953 0.04860726]
[-0.00968498 -0.0045686 -0.00809969 0.01290073 -0.03789783 -0.02113447
 -0.00188187 0.0266664 -0.01192511 0.05562545]
[-0.01821042 -0.00738535 -0.00782054 0.01018218 -0.0703169 -0.02387946
 -0.00280426 0.05371031 -0.01617785 0.08270234]
[-0.0354996 -0.01227851 -0.0089788 0.00674439 -0.10820767 -0.01637707
 -0.00443948 0.07844028 -0.03422012 0.13481659]
[-0.03553462 -0.02135033 -0.01075441 0.00500003 -0.11351163 -0.00285023
 -0.00514102 0.08405045 -0.05178545 0.1518776]
[-0.03486246 -0.02330224 -0.01581338 -0.0011472 -0.14451514 0.01653157
 -0.00775733 0.11173607 -0.04525889 0.14438924]
[-0.03098666 -0.02980281 -0.01508297 -0.01122469 -0.17299092 0.01270091
 -0.01010298 0.11759268 -0.05288108 0.19277835]
[-0.04226011 -0.04487913 -0.01694848 -0.01764879 -0.17992188 -0.01042973
 -0.01262336 0.17150842 -0.05385079 0.20705368]
[-0.04503479 -0.03701194 -0.01421771 -0.02845555 -0.2041229 -0.02069505
 -0.01100097 0.16601585 -0.05012175 0.24464552]
[-0.03986586 -0.02311553 -0.01374155 -0.02390626 -0.17702055 0.00165265
 -0.00882275 0.19198199 -0.05229591 0.14513382]
[-0.03466227 -0.01528768 -0.0161947 -0.00555744 -0.16462854 -0.00225585
 -0.00811036 0.17170808 -0.04060059 0.11558927]
[-0.03332171 -0.00847207 -0.01930553 -0.00903858 -0.14908327 -0.00979301
 -0.00766546 0.14565617 -0.02973395 0.12075757]
[-0.0256121 -0.00738439 -0.0158317 -0.01064974 -0.13600296 -0.0245318
 -0.00706269 0.11498375 -0.02285909 0.13495068]
[-0.01018037 -0.00388874 -0.00959929 -0.01024828 -0.10268978 -0.01158216
 -0.00449812 0.04499645 -0.0162419 0.1239322]
[-0.01056561 -0.00157009 -0.00713295 -0.01115181 -0.04493202 0.00389668
 -0.0025715 -0.00997994 -0.00875305 0.09276029]
[-0.00999189 -0.00089374 -0.00592873 -0.00563523 -0.01824056 0.00516574
 -0.00160055 -0.0053742 -0.00476451 0.04726368]
[-0.00351706 -0.00018577 -0.00168868 -0.00031903 -0.00794986 0.00323055
 -0.00020038 0.00545184 -0.00093763 0.00611601]
[-3.30415933e-04 -1.06062384e-04 -8.09262856e-05 -8.37403859e-05
 -4.90939361e-04 -8.12879007e-05 -6.95095878e-05 -4.64291719e-04
 -3.03128298e-04 2.01030215e-03]
[-2.05543461e-06 -6.22074348e-09 -6.11078292e-07 -2.66386428e-06
 -2.85871909e-04 -5.66266272e-06 -2.91191873e-06 -9.32141847e-06
 -6.19986940e-06 3.15304380e-04]
[-5.13376506e-07 -9.47244772e-08 -1.33382355e-06 -1.38332254e-07
 -2.66194746e-07 -4.21509213e-07 -1.46666483e-08 1.08183840e-05
 -1.98899806e-06 -6.04682054e-06]
[0. 0. 0. 0. 0. 0. 0. 0. 0. 0.]
[0. 0. 0. 0. 0. 0. 0. 0. 0. 0.]
[0. 0. 0. 0. 0. 0. 0. 0. 0. 0.]
[0. 0. 0. 0. 0. 0. 0. 0. 0. 0.]
[0. 0. 0. 0. 0. 0. 0. 0. 0. 0.]
[0. 0. 0. 0. 0. 0. 0. 0. 0. 0.]
[-2.86340946e-06 -1.08745667e-06 -5.86301383e-07 -6.27517409e-07
 -1.06667619e-06 -6.08858215e-07 -1.14813858e-07 3.90191490e-05
 -1.05993513e-05 -2.14646570e-05]
[-4.27790546e-05 -3.36312451e-06 -2.87304101e-06 -2.68997246e-06
 -6.53434245e-06 -7.69468625e-06 -7.63468677e-07 1.79266892e-04
 -3.18956918e-05 -8.06735043e-05]
[-9.64169012e-05 -6.27849886e-06 -1.70756302e-05 -1.66623940e-05
 -1.39872741e-03 -3.28713286e-05 -1.01252454e-05 3.96387040e-04
 -7.89213082e-05 1.26069260e-03]
[-2.37970264e-04 -2.79214401e-05 -5.53505815e-05 -7.93817817e-05
 -8.12650938e-03 -2.84572074e-04 -9.33745832e-05 1.66995195e-03
 -2.33261497e-04 7.46839261e-03]
[-5.20885282e-04 -4.57700880e-05 -7.41594558e-05 -1.33104986e-04
 -9.27360822e-03 -6.72202616e-04 -1.42490404e-04 6.56426046e-03
 -4.17616742e-04 4.71557537e-03]
[-9.31195333e-04 -6.46749540e-05 -1.18250195e-04 -2.90689350e-04
 -5.57631021e-03 -5.45522664e-04 -7.82983043e-05 6.23582816e-03
 -5.23899915e-04 1.89300580e-03]
[-0.00123453 -0.00134013 -0.00036606 -0.00095134 -0.00846371 0.0010449
 -0.00017909 0.01546368 -0.00335366 -0.00062006]
[-0.00137695 -0.0004228 -0.00031953 -0.00087196 -0.00702723 0.00331974
 -0.00023033 0.00911576 -0.00166083 -0.00052588]
[-0.0017702 -0.00111175 -0.00044769 -0.00182745 -0.01012813 0.00249314
 -0.00058745 0.01754158 -0.0028128 -0.00134924]
[-0.00411723 -0.00139883 -0.00075848 -0.00330941 -0.01194479 -0.00270431
 -0.00107471 0.04640333 -0.00328441 -0.01781118]
[-0.00616624 -0.00078975 -0.0005308 -0.00431699 -0.0265808 -0.00652071
 -0.00129219 0.04734179 -0.00396188 0.00281757]
[-0.00588902 -0.00032 -0.00045765 -0.00396418 -0.01436362 -0.00418795
 -0.00100608 0.0440602 -0.00337973 -0.01049197]
[-0.00489607 -0.00036629 -0.00088404 -0.00415649 -0.01278073 -0.00365778
 -0.00088302 0.04880343 -0.00243854 -0.01874047]
[-0.0034817 -0.00088795 -0.00116652 -0.00312823 -0.01148113 -0.00399176
 -0.00091557 0.04854555 -0.00232359 -0.0211691]
[-0.00496652 -0.00198076 -0.00106287 -0.00263608 -0.0139653 -0.00412321
 -0.00099356 0.04508785 -0.00223831 -0.01312125]
[-0.00269447 -0.00015052 -0.00029219 -0.00138461 -0.01060501 -0.00219564
 -0.00034904 0.02055424 -0.00102356 -0.00185921]
[-1.42526173e-03 -4.79094742e-05 -6.83052000e-04 -7.89949496e-04
 -2.23110523e-03 -1.91832811e-03 -1.05450985e-04 -1.63150416e-03
 -8.70450924e-04 9.70301032e-03]
[-1.41725247e-03 -2.60829256e-05 -4.27581923e-04 -5.28409902e-04
 -8.61124194e-04 -8.12067417e-04 -6.69907895e-05 -1.48982496e-03
 -4.49361221e-04 6.07869495e-03]
[-3.46817356e-03 -2.25662898e-05 -1.60726230e-03 -1.83895070e-04
 -8.41926143e-04 -3.46675894e-04 -6.00170133e-05 2.06865789e-03
 -3.28168069e-04 4.79002576e-03]
[-7.96757522e-04 -4.23925576e-06 -1.80584611e-05 -1.78632163e-05
 -1.74902423e-04 -7.00971214e-05 -1.14990889e-05 1.43617741e-03
 -6.00074345e-05 -2.82753084e-04]
[0. 0. 0. 0. 0. 0. 0. 0. 0. 0.]
[0. 0. 0. 0. 0. 0. 0. 0. 0. 0.]
[0. 0. 0. 0. 0. 0. 0. 0. 0. 0.]
[0. 0. 0. 0. 0. 0. 0. 0. 0. 0.]
